{"learner":{"attributes":{"scikit_learn":"{\"_estimator_type\": \"regressor\"}"},"feature_names":[],"feature_types":[],"gradient_booster":{"model":{"gbtree_model_param":{"num_parallel_tree":"1","num_trees":"435"},"iteration_indptr":[0,1,2,3,4,5,6,7,8,9,10,11,12,13,14,15,16,17,18,19,20,21,22,23,24,25,26,27,28,29,30,31,32,33,34,35,36,37,38,39,40,41,42,43,44,45,46,47,48,49,50,51,52,53,54,55,56,57,58,59,60,61,62,63,64,65,66,67,68,69,70,71,72,73,74,75,76,77,78,79,80,81,82,83,84,85,86,87,88,89,90,91,92,93,94,95,96,97,98,99,100,101,102,103,104,105,106,107,108,109,110,111,112,113,114,115,116,117,118,119,120,121,122,123,124,125,126,127,128,129,130,131,132,133,134,135,136,137,138,139,140,141,142,143,144,145,146,147,148,149,150,151,152,153,154,155,156,157,158,159,160,161,162,163,164,165,166,167,168,169,170,171,172,173,174,175,176,177,178,179,180,181,182,183,184,185,186,187,188,189,190,191,192,193,194,195,196,197,198,199,200,201,202,203,204,205,206,207,208,209,210,211,212,213,214,215,216,217,218,219,220,221,222,223,224,225,226,227,228,229,230,231,232,233,234,235,236,237,238,239,240,241,242,243,244,245,246,247,248,249,250,251,252,253,254,255,256,257,258,259,260,261,262,263,264,265,266,267,268,269,270,271,272,273,274,275,276,277,278,279,280,281,282,283,284,285,286,287,288,289,290,291,292,293,294,295,296,297,298,299,300,301,302,303,304,305,306,307,308,309,310,311,312,313,314,315,316,317,318,319,320,321,322,323,324,325,326,327,328,329,330,331,332,333,334,335,336,337,338,339,340,341,342,343,344,345,346,347,348,349,350,351,352,353,354,355,356,357,358,359,360,361,362,363,364,365,366,367,368,369,370,371,372,373,374,375,376,377,378,379,380,381,382,383,384,385,386,387,388,389,390,391,392,393,394,395,396,397,398,399,400,401,402,403,404,405,406,407,408,409,410,411,412,413,414,415,416,417,418,419,420,421,422,423,424,425,426,427,428,429,430,431,432,433,434,435],"tree_info":[0,0,0,0,0,0,0,0,0,0,0,0,0,0,0,0,0,0,0,0,0,0,0,0,0,0,0,0,0,0,0,0,0,0,0,0,0,0,0,0,0,0,0,0,0,0,0,0,0,0,0,0,0,0,0,0,0,0,0,0,0,0,0,0,0,0,0,0,0,0,0,0,0,0,0,0,0,0,0,0,0,0,0,0,0,0,0,0,0,0,0,0,0,0,0,0,0,0,0,0,0,0,0,0,0,0,0,0,0,0,0,0,0,0,0,0,0,0,0,0,0,0,0,0,0,0,0,0,0,0,0,0,0,0,0,0,0,0,0,0,0,0,0,0,0,0,0,0,0,0,0,0,0,0,0,0,0,0,0,0,0,0,0,0,0,0,0,0,0,0,0,0,0,0,0,0,0,0,0,0,0,0,0,0,0,0,0,0,0,0,0,0,0,0,0,0,0,0,0,0,0,0,0,0,0,0,0,0,0,0,0,0,0,0,0,0,0,0,0,0,0,0,0,0,0,0,0,0,0,0,0,0,0,0,0,0,0,0,0,0,0,0,0,0,0,0,0,0,0,0,0,0,0,0,0,0,0,0,0,0,0,0,0,0,0,0,0,0,0,0,0,0,0,0,0,0,0,0,0,0,0,0,0,0,0,0,0,0,0,0,0,0,0,0,0,0,0,0,0,0,0,0,0,0,0,0,0,0,0,0,0,0,0,0,0,0,0,0,0,0,0,0,0,0,0,0,0,0,0,0,0,0,0,0,0,0,0,0,0,0,0,0,0,0,0,0,0,0,0,0,0,0,0,0,0,0,0,0,0,0,0,0,0,0,0,0,0,0,0,0,0,0,0,0,0,0,0,0,0,0,0,0,0,0,0,0,0,0,0,0,0,0,0,0,0,0,0,0,0,0,0,0,0,0,0,0,0,0,0,0,0,0,0,0,0,0,0,0,0,0,0,0,0,0,0,0,0,0,0,0,0,0,0,0,0],"trees":[{"base_weights":[4.6097015E-5,4.2148266E-2,-1.6021564E-4,1.6023818E-4,1.0418602E-3,-6.0656607E-6,3.230847E-4],"categories":[],"categories_nodes":[],"categories_segments":[],"categories_sizes":[],"default_left":[0,0,0,0,0,0,0],"id":0,"left_children":[1,3,5,-1,-1,-1,-1],"loss_changes":[4.8094563E-2,7.0790723E-3,1.2887534E-2,0E0,0E0,0E0,0E0],"parents":[2147483647,0,0,1,1,2,2],"right_children":[2,4,6,-1,-1,-1,-1],"split_conditions":[-9.2279166E-2,5.216842E-2,7.536887E-2,1.6023818E-4,1.0418602E-3,-6.0656607E-6,3.230847E-4],"split_indices":[0,8,9,0,0,0,0],"split_type":[0,0,0,0,0,0,0],"sum_hessian":[5.528E3,2.2E1,5.506E3,7E0,1.5E1,5.463E3,4.3E1],"tree_param":{"num_deleted":"0","num_feature":"22","num_nodes":"7","size_leaf_vector":"1"}},{"base_weights":[-3.135284E-5,2.3460513E-2,-3.1534376E-4,2.1327776E-5,7.0629537E-4,-1.2822074E-6,-4.7409683E-4],"categories":[],"categories_nodes":[],"categories_segments":[],"categories_sizes":[],"default_left":[0,0,0,0,0,0,0],"id":1,"left_children":[1,3,5,-1,-1,-1,-1],"loss_changes":[3.686354E-2,1.7332435E-2,3.20707E-2,0E0,0E0,0E0,0E0],"parents":[2147483647,0,0,1,1,2,2],"right_children":[2,4,6,-1,-1,-1,-1],"split_conditions":[-3.8999088E-2,2.1095328E-2,3.765571E-2,2.1327776E-5,7.0629537E-4,-1.2822074E-6,-4.7409683E-4],"split_indices":[12,9,12,0,0,0,0],"split_type":[0,0,0,0,0,0,0],"sum_hessian":[5.515E3,6.1E1,5.454E3,2.3E1,3.8E1,5.401E3,5.3E1],"tree_param":{"num_deleted":"0","num_feature":"22","num_nodes":"7","size_leaf_vector":"1"}},{"base_weights":[3.651743E-5,3.8113255E-2,-1.7322824E-4,4.100878E-5,9.728629E-4,-5.680676E-4,1.2375731E-6],"categories":[],"categories_nodes":[],"categories_segments":[],"categories_sizes":[],"default_left":[0,0,0,0,0,0,0],"id":2,"left_children":[1,3,5,-1,-1,-1,-1],"loss_changes":[4.3734763E-2,1.0893427E-2,3.6161087E-2,0E0,0E0,0E0,0E0],"parents":[2147483647,0,0,1,1,2,2],"right_children":[2,4,6,-1,-1,-1,-1],"split_conditions":[-9.2279166E-2,5.6872796E-2,-7.2983764E-2,4.100878E-5,9.728629E-4,-5.680676E-4,1.2375731E-6],"split_indices":[0,8,1,0,0,0,0],"split_type":[0,0,0,0,0,0,0],"sum_hessian":[5.467E3,2.5E1,5.442E3,7E0,1.8E1,4E1,5.402E3],"tree_param":{"num_deleted":"0","num_feature":"22","num_nodes":"7","size_leaf_vector":"1"}},{"base_weights":[-1.1954703E-4,-2.8837474E-2,1.5810576E-4,-1.7981119E-4,-1.5223895E-3,3.415538E-4,-4.339639E-6],"categories":[],"categories_nodes":[],"categories_segments":[],"categories_sizes":[],"default_left":[0,0,0,0,0,0,0],"id":3,"left_children":[1,3,5,-1,-1,-1,-1],"loss_changes":[4.413282E-2,4.6313517E-2,3.4821786E-2,0E0,0E0,0E0,0E0],"parents":[2147483647,0,0,1,1,2,2],"right_children":[2,4,6,-1,-1,-1,-1],"split_conditions":[-7.2983764E-2,4.887071E-2,-5.3317446E-2,-1.7981119E-4,-1.5223895E-3,3.415538E-4,-4.339639E-6],"split_indices":[1,12,0,0,0,0,0],"split_type":[0,0,0,0,0,0,0],"sum_hessian":[5.527E3,4.8E1,5.479E3,3.8E1,1E1,1.14E2,5.365E3],"tree_param":{"num_deleted":"0","num_feature":"22","num_nodes":"7","size_leaf_vector":"1"}},{"base_weights":[-1.03120416E-4,1.3379347E-4,-2.17682E-2,3.7242033E-4,-2.3056332E-6,-1.1053784E-3,-1.7215885E-4],"categories":[],"categories_nodes":[],"categories_segments":[],"categories_sizes":[],"default_left":[0,0,0,0,0,0,0],"id":4,"left_children":[1,3,5,-1,-1,-1,-1],"loss_changes":[2.8470572E-2,2.5285976E-2,2.4073925E-2,0E0,0E0,0E0,0E0],"parents":[2147483647,0,0,1,1,2,2],"right_children":[2,4,6,-1,-1,-1,-1],"split_conditions":[3.765571E-2,-3.8999088E-2,-7.2983764E-2,3.7242033E-4,-2.3056332E-6,-1.1053784E-3,-1.7215885E-4],"split_indices":[12,12,1,0,0,0,0],"split_type":[0,0,0,0,0,0,0],"sum_hessian":[5.539E3,5.484E3,5.5E1,6.8E1,5.416E3,1.1E1,4.4E1],"tree_param":{"num_deleted":"0","num_feature":"22","num_nodes":"7","size_leaf_vector":"1"}},{"base_weights":[2.590756E-4,4.807218E-4,-2.2450812E-2,6.5369275E-4,6.564289E-6,-1.4759022E-3,-1.10003195E-4],"categories":[],"categories_nodes":[],"categories_segments":[],"categories_sizes":[],"default_left":[0,0,0,0,0,0,0],"id":5,"left_children":[1,3,5,-1,-1,-1,-1],"loss_changes":[2.8121093E-2,2.7091306E-2,4.4967823E-2,0E0,0E0,0E0,0E0],"parents":[2147483647,0,0,1,1,2,2],"right_children":[2,4,6,-1,-1,-1,-1],"split_conditions":[3.765571E-2,-5.4534793E-2,-9.2279166E-2,6.5369275E-4,6.564289E-6,-1.4759022E-3,-1.10003195E-4],"split_indices":[12,12,1,0,0,0,0],"split_type":[0,0,0,0,0,0,0],"sum_hessian":[5.571E3,5.522E3,4.9E1,2.1E1,5.501E3,8E0,4.1E1],"tree_param":{"num_deleted":"0","num_feature":"22","num_nodes":"7","size_leaf_vector":"1"}},{"base_weights":[1.5673996E-4,3.5053972E-2,-2.8111914E-5,-2.063407E-4,8.06507E-4,4.5109014E-6,-3.521338E-4],"categories":[],"categories_nodes":[],"categories_segments":[],"categories_sizes":[],"default_left":[0,0,0,0,0,0,0],"id":6,"left_children":[1,3,5,-1,-1,-1,-1],"loss_changes":[3.5503782E-2,9.016056E-3,2.4450326E-2,0E0,0E0,0E0,0E0],"parents":[2147483647,0,0,1,1,2,2],"right_children":[2,4,6,-1,-1,-1,-1],"split_conditions":[-9.2279166E-2,3.3979733E-2,3.5660636E-2,-2.063407E-4,8.06507E-4,4.5109014E-6,-3.521338E-4],"split_indices":[0,9,12,0,0,0,0],"split_type":[0,0,0,0,0,0,0],"sum_hessian":[5.498E3,2.4E1,5.474E3,2E0,2.2E1,5.401E3,7.3E1],"tree_param":{"num_deleted":"0","num_feature":"22","num_nodes":"7","size_leaf_vector":"1"}},{"base_weights":[2.069466E-4,-2.421178E-2,4.3114845E-4,-9.766031E-5,-1.165829E-3,6.762742E-4,5.5968576E-6],"categories":[],"categories_nodes":[],"categories_segments":[],"categories_sizes":[],"default_left":[0,0,0,0,0,0,0],"id":7,"left_children":[1,3,5,-1,-1,-1,-1],"loss_changes":[3.0688746E-2,3.2171424E-2,2.7985562E-2,0E0,0E0,0E0,0E0],"parents":[2147483647,0,0,1,1,2,2],"right_children":[2,4,6,-1,-1,-1,-1],"split_conditions":[-7.2983764E-2,7.245898E-2,-5.4534793E-2,-9.766031E-5,-1.165829E-3,6.762742E-4,5.5968576E-6],"split_indices":[1,8,12,0,0,0,0],"split_type":[0,0,0,0,0,0,0],"sum_hessian":[5.591E3,4.6E1,5.545E3,3.3E1,1.3E1,2E1,5.525E3],"tree_param":{"num_deleted":"0","num_feature":"22","num_nodes":"7","size_leaf_vector":"1"}},{"base_weights":[1.9413701E-4,3.0895779E-2,1.530027E-5,6.2354535E-5,8.940774E-4,-3.5956073E-6,4.73581E-4],"categories":[],"categories_nodes":[],"categories_segments":[],"categories_sizes":[],"default_left":[0,0,0,0,0,0,0],"id":8,"left_children":[1,3,5,-1,-1,-1,-1],"loss_changes":[3.0338593E-2,1.1577109E-2,2.5406534E-2,0E0,0E0,0E0,0E0],"parents":[2147483647,0,0,1,1,2,2],"right_children":[2,4,6,-1,-1,-1,-1],"split_conditions":[-9.2279166E-2,5.6872796E-2,3.554687E-2,6.2354535E-5,8.940774E-4,-3.5956073E-6,4.73581E-4],"split_indices":[0,8,5,0,0,0,0],"split_type":[0,0,0,0,0,0,0],"sum_hessian":[5.521E3,2.7E1,5.494E3,1.1E1,1.6E1,5.454E3,4E1],"tree_param":{"num_deleted":"0","num_feature":"22","num_nodes":"7","size_leaf_vector":"1"}},{"base_weights":[4.0699764E-5,3.172958E-2,-1.1563989E-4,6.641063E-5,8.563491E-4,1.730382E-6,-4.1602465E-4],"categories":[],"categories_nodes":[],"categories_segments":[],"categories_sizes":[],"default_left":[0,0,0,0,0,0,0],"id":9,"left_children":[1,3,5,-1,-1,-1,-1],"loss_changes":[2.7246784E-2,7.7940114E-3,2.2900054E-2,0E0,0E0,0E0,0E0],"parents":[2147483647,0,0,1,1,2,2],"right_children":[2,4,6,-1,-1,-1,-1],"split_conditions":[-9.2279166E-2,4.493731E-2,3.765571E-2,6.641063E-5,8.563491E-4,1.730382E-6,-4.1602465E-4],"split_indices":[0,9,12,0,0,0,0],"split_type":[0,0,0,0,0,0,0],"sum_hessian":[5.491E3,2.2E1,5.469E3,8E0,1.4E1,5.421E3,4.8E1],"tree_param":{"num_deleted":"0","num_feature":"22","num_nodes":"7","size_leaf_vector":"1"}},{"base_weights":[-2.111297E-4,-3.544015E-2,-4.4491466E-5,-1.021532E-3,1.8197823E-4,7.8263716E-4,-4.174546E-6],"categories":[],"categories_nodes":[],"categories_segments":[],"categories_sizes":[],"default_left":[0,0,0,0,0,0,0],"id":10,"left_children":[1,3,5,-1,-1,-1,-1],"loss_changes":[3.242077E-2,2.0430956E-2,3.5448026E-2,0E0,0E0,0E0,0E0],"parents":[2147483647,0,0,1,1,2,2],"right_children":[2,4,6,-1,-1,-1,-1],"split_conditions":[-9.2279166E-2,-3.9696232E-3,-1.8039845E-2,-1.021532E-3,1.8197823E-4,7.8263716E-4,-4.174546E-6],"split_indices":[1,7,7,0,0,0,0],"split_type":[0,0,0,0,0,0,0],"sum_hessian":[5.519E3,2.1E1,5.498E3,1.5E1,6E0,1.8E1,5.48E3],"tree_param":{"num_deleted":"0","num_feature":"22","num_nodes":"7","size_leaf_vector":"1"}},{"base_weights":[-1.5094265E-5,2.0518016E-4,-2.4212932E-2,6.2544085E-4,1.1475933E-6,-1.3862142E-3,-5.2141175E-5],"categories":[],"categories_nodes":[],"categories_segments":[],"categories_sizes":[],"default_left":[0,0,0,0,0,0,0],"id":11,"left_children":[1,3,5,-1,-1,-1,-1],"loss_changes":[2.9543292E-2,2.5213221E-2,4.781536E-2,0E0,0E0,0E0,0E0],"parents":[2147483647,0,0,1,1,2,2],"right_children":[2,4,6,-1,-1,-1,-1],"split_conditions":[3.765571E-2,-5.4534793E-2,-7.2983764E-2,6.2544085E-4,1.1475933E-6,-1.3862142E-3,-5.2141175E-5],"split_indices":[12,12,1,0,0,0,0],"split_type":[0,0,0,0,0,0,0],"sum_hessian":[5.533E3,5.488E3,4.5E1,2.1E1,5.467E3,1.1E1,3.4E1],"tree_param":{"num_deleted":"0","num_feature":"22","num_nodes":"7","size_leaf_vector":"1"}},{"base_weights":[1.0205056E-4,3.0015677E-4,-1.9764673E-2,6.4345554E-4,3.678824E-6,-7.0541864E-4,-1.0000751E-4],"categories":[],"categories_nodes":[],"categories_segments":[],"categories_sizes":[],"default_left":[0,0,0,0,0,0,0],"id":12,"left_children":[1,3,5,-1,-1,-1,-1],"loss_changes":[2.1924078E-2,2.039108E-2,1.1709806E-2,0E0,0E0,0E0,0E0],"parents":[2147483647,0,0,1,1,2,2],"right_children":[2,4,6,-1,-1,-1,-1],"split_conditions":[3.765571E-2,-1.8039845E-2,-1.6905991E-2,6.4345554E-4,3.678824E-6,-7.0541864E-4,-1.0000751E-4],"split_indices":[12,7,10,0,0,0,0],"split_type":[0,0,0,0,0,0,0],"sum_hessian":[5.558E3,5.508E3,5E1,1.5E1,5.493E3,2.1E1,2.9E1],"tree_param":{"num_deleted":"0","num_feature":"22","num_nodes":"7","size_leaf_vector":"1"}},{"base_weights":[1.742689E-5,3.0880373E-2,-1.5544366E-4,-1.5191856E-4,7.27185E-4,6.7176575E-6,-1.13955146E-4],"categories":[],"categories_nodes":[],"categories_segments":[],"categories_sizes":[],"default_left":[0,0,0,0,0,0,0],"id":13,"left_children":[1,3,5,-1,-1,-1,-1],"loss_changes":[2.9693572E-2,7.915927E-3,1.508185E-2,0E0,0E0,0E0,0E0],"parents":[2147483647,0,0,1,1,2,2],"right_children":[2,4,6,-1,-1,-1,-1],"split_conditions":[-9.2279166E-2,3.3979733E-2,1.8519884E-2,-1.5191856E-4,7.27185E-4,6.7176575E-6,-1.13955146E-4],"split_indices":[0,9,12,0,0,0,0],"split_type":[0,0,0,0,0,0,0],"sum_hessian":[5.556E3,2.6E1,5.53E3,3E0,2.3E1,5.084E3,4.46E2],"tree_param":{"num_deleted":"0","num_feature":"22","num_nodes":"7","size_leaf_vector":"1"}},{"base_weights":[-1.348019E-4,-2.7917659E-2,9.760185E-5,4.0947957E-4,-8.4910705E-4,6.657736E-4,-1.8076831E-6],"categories":[],"categories_nodes":[],"categories_segments":[],"categories_sizes":[],"default_left":[0,0,0,0,0,0,0],"id":14,"left_children":[1,3,5,-1,-1,-1,-1],"loss_changes":[3.5803888E-2,3.6707282E-2,3.4344543E-2,0E0,0E0,0E0,0E0],"parents":[2147483647,0,0,1,1,2,2],"right_children":[2,4,6,-1,-1,-1,-1],"split_conditions":[-7.2983764E-2,-3.280486E-3,-5.4534793E-2,4.0947957E-4,-8.4910705E-4,6.657736E-4,-1.8076831E-6],"split_indices":[1,12,12,0,0,0,0],"split_type":[0,0,0,0,0,0,0],"sum_hessian":[5.538E3,4.1E1,5.497E3,9E0,3.2E1,2.6E1,5.471E3],"tree_param":{"num_deleted":"0","num_feature":"22","num_nodes":"7","size_leaf_vector":"1"}},{"base_weights":[3.69008E-5,-2.8403727E-2,3.0743284E-4,-1.2520199E-4,-1.3043263E-3,7.1225804E-4,3.1620084E-6],"categories":[],"categories_nodes":[],"categories_segments":[],"categories_sizes":[],"default_left":[0,0,0,0,0,0,0],"id":15,"left_children":[1,3,5,-1,-1,-1,-1],"loss_changes":[4.2461243E-2,4.0347237E-2,2.8789975E-2,0E0,0E0,0E0,0E0],"parents":[2147483647,0,0,1,1,2,2],"right_children":[2,4,6,-1,-1,-1,-1],"split_conditions":[-7.2983764E-2,7.245898E-2,-9.2279166E-2,-1.2520199E-4,-1.3043263E-3,7.1225804E-4,3.1620084E-6],"split_indices":[1,8,3,0,0,0,0],"split_type":[0,0,0,0,0,0,0],"sum_hessian":[5.508E3,4.7E1,5.461E3,3.3E1,1.4E1,1.8E1,5.443E3],"tree_param":{"num_deleted":"0","num_feature":"22","num_nodes":"7","size_leaf_vector":"1"}},{"base_weights":[-2.9471814E-5,2.2574874E-4,-2.8168436E-2,7.5211574E-4,1.3176871E-6,-1.2633125E-3,-2.4796728E-4],"categories":[],"categories_nodes":[],"categories_segments":[],"categories_sizes":[],"default_left":[0,0,0,0,0,0,0],"id":16,"left_children":[1,3,5,-1,-1,-1,-1],"loss_changes":[3.91502E-2,3.227452E-2,2.312775E-2,0E0,0E0,0E0,0E0],"parents":[2147483647,0,0,1,1,2,2],"right_children":[2,4,6,-1,-1,-1,-1],"split_conditions":[3.765571E-2,-1.8039845E-2,-9.2279166E-2,7.5211574E-4,1.3176871E-6,-1.2633125E-3,-2.4796728E-4],"split_indices":[12,7,1,0,0,0,0],"split_type":[0,0,0,0,0,0,0],"sum_hessian":[5.442E3,5.398E3,4.4E1,1.8E1,5.38E3,9E0,3.5E1],"tree_param":{"num_deleted":"0","num_feature":"22","num_nodes":"7","size_leaf_vector":"1"}},{"base_weights":[3.6074597E-4,1.38014015E-2,4.1303838E-7,6.1090477E-4,1.21078825E-4,-5.152567E-4,2.0410475E-6],"categories":[],"categories_nodes":[],"categories_segments":[],"categories_sizes":[],"default_left":[0,0,0,0,0,0,0],"id":17,"left_children":[1,3,5,-1,-1,-1,-1],"loss_changes":[2.652569E-2,1.762568E-2,1.3993636E-2,0E0,0E0,0E0,0E0],"parents":[2147483647,0,0,1,1,2,2],"right_children":[2,4,6,-1,-1,-1,-1],"split_conditions":[-4.925103E-2,-8.0199335E-3,-9.2279166E-2,6.1090477E-4,1.21078825E-4,-5.152567E-4,2.0410475E-6],"split_indices":[3,7,1,0,0,0,0],"split_type":[0,0,0,0,0,0,0],"sum_hessian":[5.472E3,1.38E2,5.334E3,3.9E1,9.9E1,1.6E1,5.318E3],"tree_param":{"num_deleted":"0","num_feature":"22","num_nodes":"7","size_leaf_vector":"1"}},{"base_weights":[9.824436E-5,2.1171678E-2,-1.0436365E-4,8.1656006E-4,-1.4184401E-4,1.996361E-6,-3.8647305E-4],"categories":[],"categories_nodes":[],"categories_segments":[],"categories_sizes":[],"default_left":[0,0,0,0,0,0,0],"id":18,"left_children":[1,3,5,-1,-1,-1,-1],"loss_changes":[2.376309E-2,3.0892696E-2,2.1651756E-2,0E0,0E0,0E0,0E0],"parents":[2147483647,0,0,1,1,2,2],"right_children":[2,4,6,-1,-1,-1,-1],"split_conditions":[-7.2983764E-2,3.705752E-3,3.765571E-2,8.1656006E-4,-1.4184401E-4,1.996361E-6,-3.8647305E-4],"split_indices":[3,12,12,0,0,0,0],"split_type":[0,0,0,0,0,0,0],"sum_hessian":[5.558E3,4.8E1,5.51E3,2.7E1,2.1E1,5.457E3,5.3E1],"tree_param":{"num_deleted":"0","num_feature":"22","num_nodes":"7","size_leaf_vector":"1"}},{"base_weights":[-2.9475716E-4,-2.4431083E-2,-7.4024574E-5,-1.4633825E-4,-1.4065291E-3,7.038259E-4,-4.063149E-6],"categories":[],"categories_nodes":[],"categories_segments":[],"categories_sizes":[],"default_left":[0,0,0,0,0,0,0],"id":19,"left_children":[1,3,5,-1,-1,-1,-1],"loss_changes":[2.9394388E-2,3.6700193E-2,2.4963861E-2,0E0,0E0,0E0,0E0],"parents":[2147483647,0,0,1,1,2,2],"right_children":[2,4,6,-1,-1,-1,-1],"split_conditions":[-7.2983764E-2,4.887071E-2,-1.8039845E-2,-1.4633825E-4,-1.4065291E-3,7.038259E-4,-4.063149E-6],"split_indices":[1,12,7,0,0,0,0],"split_type":[0,0,0,0,0,0,0],"sum_hessian":[5.514E3,4.5E1,5.469E3,3.7E1,8E0,1.5E1,5.454E3],"tree_param":{"num_deleted":"0","num_feature":"22","num_nodes":"7","size_leaf_vector":"1"}},{"base_weights":[-2.9565927E-4,-8.410629E-5,-2.1973902E-2,6.3651585E-4,-4.270568E-6,-1.0202782E-3,-1.6590202E-4],"categories":[],"categories_nodes":[],"categories_segments":[],"categories_sizes":[],"default_left":[0,0,0,0,0,0,0],"id":20,"left_children":[1,3,5,-1,-1,-1,-1],"loss_changes":[2.5150089E-2,2.2492083E-2,1.893749E-2,0E0,0E0,0E0,0E0],"parents":[2147483647,0,0,1,1,2,2],"right_children":[2,4,6,-1,-1,-1,-1],"split_conditions":[3.765571E-2,-1.8039845E-2,-7.2983764E-2,6.3651585E-4,-4.270568E-6,-1.0202782E-3,-1.6590202E-4],"split_indices":[12,7,1,0,0,0,0],"split_type":[0,0,0,0,0,0,0],"sum_hessian":[5.481E3,5.433E3,4.8E1,1.7E1,5.416E3,1.1E1,3.7E1],"tree_param":{"num_deleted":"0","num_feature":"22","num_nodes":"7","size_leaf_vector":"1"}},{"base_weights":[-2.0759909E-4,-2.5062572E-2,1.850282E-5,1.689847E-4,-6.899335E-4,3.1988116E-4,-5.781555E-6],"categories":[],"categories_nodes":[],"categories_segments":[],"categories_sizes":[],"default_left":[0,0,0,0,0,0,0],"id":21,"left_children":[1,3,5,-1,-1,-1,-1],"loss_changes":[3.1169493E-2,1.7265044E-2,2.7053772E-2,0E0,0E0,0E0,0E0],"parents":[2147483647,0,0,1,1,2,2],"right_children":[2,4,6,-1,-1,-1,-1],"split_conditions":[-7.2983764E-2,-3.187474E-3,-5.3317446E-2,1.689847E-4,-6.899335E-4,3.1988116E-4,-5.781555E-6],"split_indices":[1,12,0,0,0,0,0],"split_type":[0,0,0,0,0,0,0],"sum_hessian":[5.541E3,4.5E1,5.496E3,1E1,3.5E1,9.9E1,5.397E3],"tree_param":{"num_deleted":"0","num_feature":"22","num_nodes":"7","size_leaf_vector":"1"}},{"base_weights":[-1.7357437E-4,1.3866664E-2,-4.7180688E-4,6.600464E-4,1.267563E-4,-2.9334478E-4,-4.2583624E-6],"categories":[],"categories_nodes":[],"categories_segments":[],"categories_sizes":[],"default_left":[0,0,0,0,0,0,0],"id":22,"left_children":[1,3,5,-1,-1,-1,-1],"loss_changes":[2.2949563E-2,1.53781045E-2,1.9697288E-2,0E0,0E0,0E0,0E0],"parents":[2147483647,0,0,1,1,2,2],"right_children":[2,4,6,-1,-1,-1,-1],"split_conditions":[-5.3317446E-2,-4.061818E-2,-5.3317446E-2,6.600464E-4,1.267563E-4,-2.9334478E-4,-4.2583624E-6],"split_indices":[0,12,2,0,0,0,0],"split_type":[0,0,0,0,0,0,0],"sum_hessian":[5.468E3,1.09E2,5.359E3,2.6E1,8.3E1,9.1E1,5.268E3],"tree_param":{"num_deleted":"0","num_feature":"22","num_nodes":"7","size_leaf_vector":"1"}},{"base_weights":[8.4986605E-5,3.0111954E-2,-7.719334E-5,8.479434E-4,-1.1962717E-4,6.3005806E-4,-4.1651206E-6],"categories":[],"categories_nodes":[],"categories_segments":[],"categories_sizes":[],"default_left":[0,0,0,0,0,0,0],"id":23,"left_children":[1,3,5,-1,-1,-1,-1],"loss_changes":[2.7194688E-2,1.4570391E-2,2.3033073E-2,0E0,0E0,0E0,0E0],"parents":[2147483647,0,0,1,1,2,2],"right_children":[2,4,6,-1,-1,-1,-1],"split_conditions":[-1.8039845E-2,4E0,-5.4534793E-2,8.479434E-4,-1.1962717E-4,6.3005806E-4,-4.1651206E-6],"split_indices":[7,13,12,0,0,0,0],"split_type":[0,0,0,0,0,0,0],"sum_hessian":[5.577E3,2.5E1,5.552E3,1.8E1,7E0,1.8E1,5.534E3],"tree_param":{"num_deleted":"0","num_feature":"22","num_nodes":"7","size_leaf_vector":"1"}},{"base_weights":[1.1954044E-4,3.5820715E-4,-2.3144089E-2,5.680118E-4,4.2671145E-6,-1.0610563E-3,-1.5865966E-4],"categories":[],"categories_nodes":[],"categories_segments":[],"categories_sizes":[],"default_left":[0,0,0,0,0,0,0],"id":24,"left_children":[1,3,5,-1,-1,-1,-1],"loss_changes":[3.0617712E-2,2.2131862E-2,2.3372572E-2,0E0,0E0,0E0,0E0],"parents":[2147483647,0,0,1,1,2,2],"right_children":[2,4,6,-1,-1,-1,-1],"split_conditions":[3.765571E-2,-5.4534793E-2,-7.2983764E-2,5.680118E-4,4.2671145E-6,-1.0610563E-3,-1.5865966E-4],"split_indices":[12,12,1,0,0,0,0],"split_type":[0,0,0,0,0,0,0],"sum_hessian":[5.502E3,5.451E3,5.1E1,2.3E1,5.428E3,1.3E1,3.8E1],"tree_param":{"num_deleted":"0","num_feature":"22","num_nodes":"7","size_leaf_vector":"1"}},{"base_weights":[2.0801842E-4,3.7953205E-2,6.342213E-5,-2.0760851E-4,9.1545295E-4,5.4922593E-6,-3.8137427E-4],"categories":[],"categories_nodes":[],"categories_segments":[],"categories_sizes":[],"default_left":[0,0,0,0,0,0,0],"id":25,"left_children":[1,3,5,-1,-1,-1,-1],"loss_changes":[3.003323E-2,1.0312481E-2,2.2204665E-2,0E0,0E0,0E0,0E0],"parents":[2147483647,0,0,1,1,2,2],"right_children":[2,4,6,-1,-1,-1,-1],"split_conditions":[-9.2279166E-2,3.3979733E-2,3.765571E-2,-2.0760851E-4,9.1545295E-4,5.4922593E-6,-3.8137427E-4],"split_indices":[0,9,12,0,0,0,0],"split_type":[0,0,0,0,0,0,0],"sum_hessian":[5.5E3,1.6E1,5.484E3,2E0,1.4E1,5.429E3,5.5E1],"tree_param":{"num_deleted":"0","num_feature":"22","num_nodes":"7","size_leaf_vector":"1"}},{"base_weights":[-1.3371487E-4,9.9866695E-5,-2.243927E-2,4.867849E-4,-1.5882306E-6,-1.2408536E-3,-9.9694604E-5],"categories":[],"categories_nodes":[],"categories_segments":[],"categories_sizes":[],"default_left":[0,0,0,0,0,0,0],"id":26,"left_children":[1,3,5,-1,-1,-1,-1],"loss_changes":[2.86567E-2,2.3675764E-2,3.7855446E-2,0E0,0E0,0E0,0E0],"parents":[2147483647,0,0,1,1,2,2],"right_children":[2,4,6,-1,-1,-1,-1],"split_conditions":[3.765571E-2,-1.5199119E-1,-7.2983764E-2,4.867849E-4,-1.5882306E-6,-1.2408536E-3,-9.9694604E-5],"split_indices":[12,10,1,0,0,0,0],"split_type":[0,0,0,0,0,0,0],"sum_hessian":[5.493E3,5.441E3,5.2E1,3.5E1,5.406E3,1.2E1,4E1],"tree_param":{"num_deleted":"0","num_feature":"22","num_nodes":"7","size_leaf_vector":"1"}},{"base_weights":[-6.463927E-5,1.738962E-4,-2.1952834E-2,4.3245178E-4,1.4417026E-6,-1.1583128E-3,-1.168887E-4],"categories":[],"categories_nodes":[],"categories_segments":[],"categories_sizes":[],"default_left":[0,0,0,0,0,0,0],"id":27,"left_children":[1,3,5,-1,-1,-1,-1],"loss_changes":[2.9058905E-2,1.2017922E-2,3.3065774E-2,0E0,0E0,0E0,0E0],"parents":[2147483647,0,0,1,1,2,2],"right_children":[2,4,6,-1,-1,-1,-1],"split_conditions":[3.765571E-2,-1.8039845E-2,-7.2983764E-2,4.3245178E-4,1.4417026E-6,-1.1583128E-3,-1.168887E-4],"split_indices":[12,7,1,0,0,0,0],"split_type":[0,0,0,0,0,0,0],"sum_hessian":[5.557E3,5.502E3,5.5E1,2.1E1,5.481E3,1.3E1,4.2E1],"tree_param":{"num_deleted":"0","num_feature":"22","num_nodes":"7","size_leaf_vector":"1"}},{"base_weights":[-3.0982387E-4,2.8907284E-2,-4.3728997E-4,7.7671406E-4,-8.8207125E-5,-7.103885E-4,-6.559994E-6],"categories":[],"categories_nodes":[],"categories_segments":[],"categories_sizes":[],"default_left":[0,0,0,0,0,0,0],"id":28,"left_children":[1,3,5,-1,-1,-1,-1],"loss_changes":[2.0576049E-2,8.795392E-3,2.0987317E-2,0E0,0E0,0E0,0E0],"parents":[2147483647,0,0,1,1,2,2],"right_children":[2,4,6,-1,-1,-1,-1],"split_conditions":[-5.4534793E-2,-5.8449674E-2,-3.714488E-2,7.7671406E-4,-8.8207125E-5,-7.103885E-4,-6.559994E-6],"split_indices":[12,0,5,0,0,0,0],"split_type":[0,0,0,0,0,0,0],"sum_hessian":[5.503E3,1.9E1,5.484E3,1.4E1,5E0,1.2E1,5.472E3],"tree_param":{"num_deleted":"0","num_feature":"22","num_nodes":"7","size_leaf_vector":"1"}},{"base_weights":[-1.3668786E-4,-6.542668E-4,6.239685E-3,2.0836669E-4,-1.7678452E-5,3.5768512E-4,6.540693E-5],"categories":[],"categories_nodes":[],"categories_segments":[],"categories_sizes":[],"default_left":[0,0,0,0,0,0,0],"id":29,"left_children":[1,3,5,-1,-1,-1,-1],"loss_changes":[1.8198336E-2,1.3012231E-2,1.4022306E-2,0E0,0E0,0E0,0E0],"parents":[2147483647,0,0,1,1,2,2],"right_children":[2,4,6,-1,-1,-1,-1],"split_conditions":[9.9576255E-3,-5.3317446E-2,-1.0731766E-2,2.0836669E-4,-1.7678452E-5,3.5768512E-4,6.540693E-5],"split_indices":[6,0,3,0,0,0,0],"split_type":[0,0,0,0,0,0,0],"sum_hessian":[5.503E3,5.094E3,4.09E2,9.9E1,4.995E3,7.8E1,3.31E2],"tree_param":{"num_deleted":"0","num_feature":"22","num_nodes":"7","size_leaf_vector":"1"}},{"base_weights":[-9.663115E-6,3.0149218E-2,-1.5038146E-4,9.5226726E-4,1.3799127E-4,-1.8782103E-4,4.513244E-6],"categories":[],"categories_nodes":[],"categories_segments":[],"categories_sizes":[],"default_left":[0,0,0,0,0,0,0],"id":30,"left_children":[1,3,5,-1,-1,-1,-1],"loss_changes":[2.3758845E-2,8.914361E-3,1.9372715E-2,0E0,0E0,0E0,0E0],"parents":[2147483647,0,0,1,1,2,2],"right_children":[2,4,6,-1,-1,-1,-1],"split_conditions":[-5.4534793E-2,-2.7258998E-2,-3.935756E-2,9.5226726E-4,1.3799127E-4,-1.8782103E-4,4.513244E-6],"split_indices":[12,1,1,0,0,0,0],"split_type":[0,0,0,0,0,0,0],"sum_hessian":[5.588E3,2.1E1,5.567E3,9E0,1.2E1,2.13E2,5.354E3],"tree_param":{"num_deleted":"0","num_feature":"22","num_nodes":"7","size_leaf_vector":"1"}},{"base_weights":[1.9380442E-4,4.0805415E-4,-2.0248337E-2,5.303792E-4,5.6451995E-6,-1.9751239E-4,-1.1006237E-3],"categories":[],"categories_nodes":[],"categories_segments":[],"categories_sizes":[],"default_left":[0,0,0,0,0,0,0],"id":31,"left_children":[1,3,5,-1,-1,-1,-1],"loss_changes":[2.4068475E-2,1.7811088E-2,1.7847849E-2,0E0,0E0,0E0,0E0],"parents":[2147483647,0,0,1,1,2,2],"right_children":[2,4,6,-1,-1,-1,-1],"split_conditions":[3.765571E-2,-9.2279166E-2,4E0,5.303792E-4,5.6451995E-6,-1.9751239E-4,-1.1006237E-3],"split_indices":[12,0,13,0,0,0,0],"split_type":[0,0,0,0,0,0,0],"sum_hessian":[5.481E3,5.429E3,5.2E1,2.1E1,5.408E3,4.5E1,7E0],"tree_param":{"num_deleted":"0","num_feature":"22","num_nodes":"7","size_leaf_vector":"1"}},{"base_weights":[2.4428108E-4,1.94428E-2,-7.344962E-6,6.766354E-4,-1.4458927E-4,-5.0042063E-4,4.0361283E-6],"categories":[],"categories_nodes":[],"categories_segments":[],"categories_sizes":[],"default_left":[0,0,0,0,0,0,0],"id":32,"left_children":[1,3,5,-1,-1,-1,-1],"loss_changes":[2.6512405E-2,2.8471768E-2,2.8391238E-2,0E0,0E0,0E0,0E0],"parents":[2147483647,0,0,1,1,2,2],"right_children":[2,4,6,-1,-1,-1,-1],"split_conditions":[-6.4949684E-2,1.1572307E-2,-7.2983764E-2,6.766354E-4,-1.4458927E-4,-5.0042063E-4,4.0361283E-6],"split_indices":[3,12,1,0,0,0,0],"split_type":[0,0,0,0,0,0,0],"sum_hessian":[5.483E3,6.6E1,5.417E3,4.2E1,2.4E1,4E1,5.377E3],"tree_param":{"num_deleted":"0","num_feature":"22","num_nodes":"7","size_leaf_vector":"1"}},{"base_weights":[6.32243E-5,3.0168029E-2,-1.1157523E-4,-1.0754574E-5,8.84948E-4,3.9763201E-4,-4.1956564E-6],"categories":[],"categories_nodes":[],"categories_segments":[],"categories_sizes":[],"default_left":[0,0,0,0,0,0,0],"id":33,"left_children":[1,3,5,-1,-1,-1,-1],"loss_changes":[2.9170005E-2,1.3953134E-2,1.0845528E-2,0E0,0E0,0E0,0E0],"parents":[2147483647,0,0,1,1,2,2],"right_children":[2,4,6,-1,-1,-1,-1],"split_conditions":[-9.2279166E-2,5.6872796E-2,-9.2279166E-2,-1.0754574E-5,8.84948E-4,3.9763201E-4,-4.1956564E-6],"split_indices":[0,8,3,0,0,0,0],"split_type":[0,0,0,0,0,0,0],"sum_hessian":[5.535E3,2.7E1,5.508E3,1E1,1.7E1,2.2E1,5.486E3],"tree_param":{"num_deleted":"0","num_feature":"22","num_nodes":"7","size_leaf_vector":"1"}},{"base_weights":[1.01675105E-4,2.8504226E-2,-4.4877346E-5,7.046071E-4,-2.0660156E-4,-3.4002992E-4,1.998088E-6],"categories":[],"categories_nodes":[],"categories_segments":[],"categories_sizes":[],"default_left":[0,0,0,0,0,0,0],"id":34,"left_children":[1,3,5,-1,-1,-1,-1],"loss_changes":[2.2704309E-2,9.133393E-3,1.3339193E-2,0E0,0E0,0E0,0E0],"parents":[2147483647,0,0,1,1,2,2],"right_children":[2,4,6,-1,-1,-1,-1],"split_conditions":[-5.4534793E-2,-4.551693E-3,-7.2983764E-2,7.046071E-4,-2.0660156E-4,-3.4002992E-4,1.998088E-6],"split_indices":[12,5,1,0,0,0,0],"split_type":[0,0,0,0,0,0,0],"sum_hessian":[5.448E3,2.3E1,5.425E3,2E1,3E0,4.1E1,5.384E3],"tree_param":{"num_deleted":"0","num_feature":"22","num_nodes":"7","size_leaf_vector":"1"}},{"base_weights":[-2.9727316E-6,1.9604151E-4,-2.0243183E-2,5.5662845E-4,1.4935348E-6,-9.585614E-4,-9.1249305E-5],"categories":[],"categories_nodes":[],"categories_segments":[],"categories_sizes":[],"default_left":[0,0,0,0,0,0,0],"id":35,"left_children":[1,3,5,-1,-1,-1,-1],"loss_changes":[2.2339491E-2,1.8409569E-2,2.2349067E-2,0E0,0E0,0E0,0E0],"parents":[2147483647,0,0,1,1,2,2],"right_children":[2,4,6,-1,-1,-1,-1],"split_conditions":[3.765571E-2,-9.2279166E-2,-6.4949684E-2,5.5662845E-4,1.4935348E-6,-9.585614E-4,-9.1249305E-5],"split_indices":[12,0,1,0,0,0,0],"split_type":[0,0,0,0,0,0,0],"sum_hessian":[5.536E3,5.487E3,4.9E1,1.9E1,5.468E3,1.4E1,3.5E1],"tree_param":{"num_deleted":"0","num_feature":"22","num_nodes":"7","size_leaf_vector":"1"}},{"base_weights":[1.3996873E-4,3.4991742E-4,-1.9603653E-2,-1.4724942E-6,2.103712E-4,-7.9816807E-4,-1.9937781E-4],"categories":[],"categories_nodes":[],"categories_segments":[],"categories_sizes":[],"default_left":[0,0,0,0,0,0,0],"id":36,"left_children":[1,3,5,-1,-1,-1,-1],"loss_changes":[2.284919E-2,2.3480501E-2,9.35741E-3,0E0,0E0,0E0,0E0],"parents":[2147483647,0,0,1,1,2,2],"right_children":[2,4,6,-1,-1,-1,-1],"split_conditions":[3.765571E-2,4.8735317E-2,-7.2983764E-2,-1.4724942E-6,2.103712E-4,-7.9816807E-4,-1.9937781E-4],"split_indices":[12,9,1,0,0,0,0],"split_type":[0,0,0,0,0,0,0],"sum_hessian":[5.499E3,5.446E3,5.3E1,5.233E3,2.13E2,1.2E1,4.1E1],"tree_param":{"num_deleted":"0","num_feature":"22","num_nodes":"7","size_leaf_vector":"1"}},{"base_weights":[-2.1847566E-4,1.852539E-2,-3.8156335E-4,6.223137E-4,-1.0946812E-5,-4.3722557E-6,-3.4277397E-4],"categories":[],"categories_nodes":[],"categories_segments":[],"categories_sizes":[],"default_left":[0,0,0,0,0,0,0],"id":37,"left_children":[1,3,5,-1,-1,-1,-1],"loss_changes":[1.7010273E-2,1.1611456E-2,1.5026787E-2,0E0,0E0,0E0,0E0],"parents":[2147483647,0,0,1,1,2,2],"right_children":[2,4,6,-1,-1,-1,-1],"split_conditions":[-4.061818E-2,-5.7787802E-2,3.765571E-2,6.223137E-4,-1.0946812E-5,-4.3722557E-6,-3.4277397E-4],"split_indices":[12,10,12,0,0,0,0],"split_type":[0,0,0,0,0,0,0],"sum_hessian":[5.548E3,4.3E1,5.505E3,2.4E1,1.9E1,5.457E3,4.8E1],"tree_param":{"num_deleted":"0","num_feature":"22","num_nodes":"7","size_leaf_vector":"1"}},{"base_weights":[-1.444723E-4,2.5418483E-2,-2.7422016E-4,6.317193E-4,-1.948291E-4,-3.504599E-4,-2.3237376E-6],"categories":[],"categories_nodes":[],"categories_segments":[],"categories_sizes":[],"default_left":[0,0,0,0,0,0,0],"id":38,"left_children":[1,3,5,-1,-1,-1,-1],"loss_changes":[1.8389681E-2,7.6102186E-3,1.5012146E-2,0E0,0E0,0E0,0E0],"parents":[2147483647,0,0,1,1,2,2],"right_children":[2,4,6,-1,-1,-1,-1],"split_conditions":[-5.4534793E-2,-4.551693E-3,-7.2983764E-2,6.317193E-4,-1.948291E-4,-3.504599E-4,-2.3237376E-6],"split_indices":[12,5,1,0,0,0,0],"split_type":[0,0,0,0,0,0,0],"sum_hessian":[5.529E3,2.3E1,5.506E3,2E1,3E0,4.5E1,5.461E3],"tree_param":{"num_deleted":"0","num_feature":"22","num_nodes":"7","size_leaf_vector":"1"}},{"base_weights":[8.1456514E-5,1.3091362E-2,-1.8432707E-4,3.326953E-4,-3.894658E-4,-3.737492E-4,3.0816128E-7],"categories":[],"categories_nodes":[],"categories_segments":[],"categories_sizes":[],"default_left":[0,0,0,0,0,0,0],"id":39,"left_children":[1,3,5,-1,-1,-1,-1],"loss_changes":[1.8826062E-2,1.4197139E-2,1.972553E-2,0E0,0E0,0E0,0E0],"parents":[2147483647,0,0,1,1,2,2],"right_children":[2,4,6,-1,-1,-1,-1],"split_conditions":[-5.3317446E-2,6.563643E-2,-1.7470064E-2,3.326953E-4,-3.894658E-4,-3.737492E-4,3.0816128E-7],"split_indices":[0,3,6,0,0,0,0],"split_type":[0,0,0,0,0,0,0],"sum_hessian":[5.436E3,1.04E2,5.332E3,9.6E1,8E0,5.2E1,5.28E3],"tree_param":{"num_deleted":"0","num_feature":"22","num_nodes":"7","size_leaf_vector":"1"}},{"base_weights":[-4.410986E-5,2.7262775E-2,-1.8860321E-4,-4.819689E-5,7.1054674E-4,5.4183156E-9,-3.2338293E-4],"categories":[],"categories_nodes":[],"categories_segments":[],"categories_sizes":[],"default_left":[0,0,0,0,0,0,0],"id":40,"left_children":[1,3,5,-1,-1,-1,-1],"loss_changes":[2.1738695E-2,7.5397827E-3,1.653735E-2,0E0,0E0,0E0,0E0],"parents":[2147483647,0,0,1,1,2,2],"right_children":[2,4,6,-1,-1,-1,-1],"split_conditions":[-9.2279166E-2,5.216842E-2,7.245898E-2,-4.819689E-5,7.1054674E-4,5.4183156E-9,-3.2338293E-4],"split_indices":[0,8,8,0,0,0,0],"split_type":[0,0,0,0,0,0,0],"sum_hessian":[5.498E3,2.4E1,5.474E3,6E0,1.8E1,5.415E3,5.9E1],"tree_param":{"num_deleted":"0","num_feature":"22","num_nodes":"7","size_leaf_vector":"1"}},{"base_weights":[-2.524597E-4,2.1944184E-2,-3.7356702E-4,5.6707714E-4,-1.7527731E-4,-1.04943465E-5,3.0351937E-4],"categories":[],"categories_nodes":[],"categories_segments":[],"categories_sizes":[],"default_left":[0,0,0,0,0,0,0],"id":41,"left_children":[1,3,5,-1,-1,-1,-1],"loss_changes":[1.4860904E-2,7.1473047E-3,1.2938353E-2,0E0,0E0,0E0,0E0],"parents":[2147483647,0,0,1,1,2,2],"right_children":[2,4,6,-1,-1,-1,-1],"split_conditions":[-5.4534793E-2,-3.918825E-2,3.554687E-2,5.6707714E-4,-1.7527731E-4,-1.04943465E-5,3.0351937E-4],"split_indices":[12,0,5,0,0,0,0],"split_type":[0,0,0,0,0,0,0],"sum_hessian":[5.508E3,2.5E1,5.483E3,2.1E1,4E0,5.435E3,4.8E1],"tree_param":{"num_deleted":"0","num_feature":"22","num_nodes":"7","size_leaf_vector":"1"}},{"base_weights":[-8.113598E-5,2.6773121E-2,-2.1935807E-4,7.414363E-4,-2.0600866E-4,3.771148E-4,-7.849365E-6],"categories":[],"categories_nodes":[],"categories_segments":[],"categories_sizes":[],"default_left":[0,0,0,0,0,0,0],"id":42,"left_children":[1,3,5,-1,-1,-1,-1],"loss_changes":[2.0296076E-2,1.2599936E-2,1.7990483E-2,0E0,0E0,0E0,0E0],"parents":[2147483647,0,0,1,1,2,2],"right_children":[2,4,6,-1,-1,-1,-1],"split_conditions":[-5.4534793E-2,4.824854E-2,-7.2983764E-2,7.414363E-4,-2.0600866E-4,3.771148E-4,-7.849365E-6],"split_indices":[12,4,3,0,0,0,0],"split_type":[0,0,0,0,0,0,0],"sum_hessian":[5.455E3,2.3E1,5.432E3,1.8E1,5E0,4.4E1,5.388E3],"tree_param":{"num_deleted":"0","num_feature":"22","num_nodes":"7","size_leaf_vector":"1"}},{"base_weights":[1.2245156E-4,-2.6183615E-2,2.6170322E-4,1.932454E-4,-1.1665571E-3,6.044897E-4,2.8133577E-6],"categories":[],"categories_nodes":[],"categories_segments":[],"categories_sizes":[],"default_left":[0,0,0,0,0,0,0],"id":43,"left_children":[1,3,5,-1,-1,-1,-1],"loss_changes":[2.0174334E-2,3.623282E-2,1.9830506E-2,0E0,0E0,0E0,0E0],"parents":[2147483647,0,0,1,1,2,2],"right_children":[2,4,6,-1,-1,-1,-1],"split_conditions":[-9.2279166E-2,4.887071E-2,-1.8039845E-2,1.932454E-4,-1.1665571E-3,6.044897E-4,2.8133577E-6],"split_indices":[1,12,7,0,0,0,0],"split_type":[0,0,0,0,0,0,0],"sum_hessian":[5.493E3,2.4E1,5.469E3,1.3E1,1.1E1,1.7E1,5.452E3],"tree_param":{"num_deleted":"0","num_feature":"22","num_nodes":"7","size_leaf_vector":"1"}},{"base_weights":[-1.07013184E-4,2.5583068E-2,-2.369693E-4,6.286124E-4,-8.446442E-5,-9.095519E-7,-2.8710227E-4],"categories":[],"categories_nodes":[],"categories_segments":[],"categories_sizes":[],"default_left":[0,0,0,0,0,0,0],"id":44,"left_children":[1,3,5,-1,-1,-1,-1],"loss_changes":[1.8572804E-2,5.5439193E-3,1.4949837E-2,0E0,0E0,0E0,0E0],"parents":[2147483647,0,0,1,1,2,2],"right_children":[2,4,6,-1,-1,-1,-1],"split_conditions":[-5.4534793E-2,4.824854E-2,3.5660636E-2,6.286124E-4,-8.446442E-5,-9.095519E-7,-2.8710227E-4],"split_indices":[12,4,12,0,0,0,0],"split_type":[0,0,0,0,0,0,0],"sum_hessian":[5.549E3,2.3E1,5.526E3,1.9E1,4E0,5.457E3,6.9E1],"tree_param":{"num_deleted":"0","num_feature":"22","num_nodes":"7","size_leaf_vector":"1"}},{"base_weights":[-1.0880348E-4,2.6695322E-2,-2.5493547E-4,-1.68121E-5,7.379886E-4,-2.1545575E-6,-3.3234063E-4],"categories":[],"categories_nodes":[],"categories_segments":[],"categories_sizes":[],"default_left":[0,0,0,0,0,0,0],"id":45,"left_children":[1,3,5,-1,-1,-1,-1],"loss_changes":[2.1671206E-2,8.584479E-3,1.3236076E-2,0E0,0E0,0E0,0E0],"parents":[2147483647,0,0,1,1,2,2],"right_children":[2,4,6,-1,-1,-1,-1],"split_conditions":[-9.2279166E-2,5.6872796E-2,3.765571E-2,-1.68121E-5,7.379886E-4,-2.1545575E-6,-3.3234063E-4],"split_indices":[0,8,12,0,0,0,0],"split_type":[0,0,0,0,0,0,0],"sum_hessian":[5.519E3,2.5E1,5.494E3,8E0,1.7E1,5.45E3,4.4E1],"tree_param":{"num_deleted":"0","num_feature":"22","num_nodes":"7","size_leaf_vector":"1"}},{"base_weights":[-5.294976E-5,1.5470355E-4,-1.4398704E-2,-4.851233E-6,1.5014043E-4,-9.086007E-4,-4.452803E-5],"categories":[],"categories_nodes":[],"categories_segments":[],"categories_sizes":[],"default_left":[0,0,0,0,0,0,0],"id":46,"left_children":[1,3,5,-1,-1,-1,-1],"loss_changes":[1.6493633E-2,1.5953861E-2,2.9334368E-2,0E0,0E0,0E0,0E0],"parents":[2147483647,0,0,1,1,2,2],"right_children":[2,4,6,-1,-1,-1,-1],"split_conditions":[3.5660636E-2,4.634192E-2,-4.6794713E-2,-4.851233E-6,1.5014043E-4,-9.086007E-4,-4.452803E-5],"split_indices":[12,9,1,0,0,0,0],"split_type":[0,0,0,0,0,0,0],"sum_hessian":[5.528E3,5.454E3,7.4E1,5.179E3,2.75E2,1.7E1,5.7E1],"tree_param":{"num_deleted":"0","num_feature":"22","num_nodes":"7","size_leaf_vector":"1"}},{"base_weights":[-1.4533511E-4,-2.1615546E-2,3.3714965E-5,-6.0725324E-5,-1.0483318E-3,-5.9214185E-6,1.8789759E-4],"categories":[],"categories_nodes":[],"categories_segments":[],"categories_sizes":[],"default_left":[0,0,0,0,0,0,0],"id":47,"left_children":[1,3,5,-1,-1,-1,-1],"loss_changes":[2.138148E-2,2.5528265E-2,1.705514E-2,0E0,0E0,0E0,0E0],"parents":[2147483647,0,0,1,1,2,2],"right_children":[2,4,6,-1,-1,-1,-1],"split_conditions":[-7.2983764E-2,7.245898E-2,5.2335158E-2,-6.0725324E-5,-1.0483318E-3,-5.9214185E-6,1.8789759E-4],"split_indices":[1,8,9,0,0,0,0],"split_type":[0,0,0,0,0,0,0],"sum_hessian":[5.556E3,4.1E1,5.515E3,2.9E1,1.2E1,5.332E3,1.83E2],"tree_param":{"num_deleted":"0","num_feature":"22","num_nodes":"7","size_leaf_vector":"1"}},{"base_weights":[-2.1951819E-4,8.370656E-6,-2.4323951E-2,-6.8739373E-6,2.1482323E-4,-1.0166549E-3,-1.3415703E-4],"categories":[],"categories_nodes":[],"categories_segments":[],"categories_sizes":[],"default_left":[0,0,0,0,0,0,0],"id":48,"left_children":[1,3,5,-1,-1,-1,-1],"loss_changes":[3.0498885E-2,2.0820025E-2,2.257815E-2,0E0,0E0,0E0,0E0],"parents":[2147483647,0,0,1,1,2,2],"right_children":[2,4,6,-1,-1,-1,-1],"split_conditions":[3.765571E-2,5.2335158E-2,-6.4949684E-2,-6.8739373E-6,2.1482323E-4,-1.0166549E-3,-1.3415703E-4],"split_indices":[12,9,1,0,0,0,0],"split_type":[0,0,0,0,0,0,0],"sum_hessian":[5.547E3,5.5E3,4.7E1,5.33E3,1.7E2,1.5E1,3.2E1],"tree_param":{"num_deleted":"0","num_feature":"22","num_nodes":"7","size_leaf_vector":"1"}},{"base_weights":[1.1051475E-4,2.4338933E-2,-3.6840195E-6,9.06285E-4,1.3435548E-4,-2.839869E-6,3.1562528E-4],"categories":[],"categories_nodes":[],"categories_segments":[],"categories_sizes":[],"default_left":[0,0,0,0,0,0,0],"id":49,"left_children":[1,3,5,-1,-1,-1,-1],"loss_changes":[1.5334361E-2,8.08779E-3,1.2064693E-2,0E0,0E0,0E0,0E0],"parents":[2147483647,0,0,1,1,2,2],"right_children":[2,4,6,-1,-1,-1,-1],"split_conditions":[-5.4534793E-2,-2.7258998E-2,3.554687E-2,9.06285E-4,1.3435548E-4,-2.839869E-6,3.1562528E-4],"split_indices":[12,1,5,0,0,0,0],"split_type":[0,0,0,0,0,0,0],"sum_hessian":[5.537E3,2.1E1,5.516E3,6E0,1.5E1,5.473E3,4.3E1],"tree_param":{"num_deleted":"0","num_feature":"22","num_nodes":"7","size_leaf_vector":"1"}},{"base_weights":[1.4480861E-4,1.5314419E-2,-1.3113681E-4,3.8506056E-4,-3.5686066E-4,-5.2006394E-6,6.00056E-4],"categories":[],"categories_nodes":[],"categories_segments":[],"categories_sizes":[],"default_left":[0,0,0,0,0,0,0],"id":50,"left_children":[1,3,5,-1,-1,-1,-1],"loss_changes":[2.2961793E-2,1.4515901E-2,2.097441E-2,0E0,0E0,0E0,0E0],"parents":[2147483647,0,0,1,1,2,2],"right_children":[2,4,6,-1,-1,-1,-1],"split_conditions":[-5.3317446E-2,-8.231245E-4,8.292539E-2,3.8506056E-4,-3.5686066E-4,-5.2006394E-6,6.00056E-4],"split_indices":[0,12,9,0,0,0,0],"split_type":[0,0,0,0,0,0,0],"sum_hessian":[5.478E3,9.3E1,5.385E3,8.5E1,8E0,5.367E3,1.8E1],"tree_param":{"num_deleted":"0","num_feature":"22","num_nodes":"7","size_leaf_vector":"1"}},{"base_weights":[4.327522E-4,1.4830727E-2,1.36448E-4,3.3982823E-4,-3.8193437E-4,-2.6690186E-4,6.212355E-6],"categories":[],"categories_nodes":[],"categories_segments":[],"categories_sizes":[],"default_left":[0,0,0,0,0,0,0],"id":51,"left_children":[1,3,5,-1,-1,-1,-1],"loss_changes":[2.3483736E-2,9.759428E-3,1.270269E-2,0E0,0E0,0E0,0E0],"parents":[2147483647,0,0,1,1,2,2],"right_children":[2,4,6,-1,-1,-1,-1],"split_conditions":[-5.3317446E-2,2.0086823E-3,-4.3938976E-2,3.3982823E-4,-3.8193437E-4,-2.6690186E-4,6.212355E-6],"split_indices":[0,12,0,0,0,0,0],"split_type":[0,0,0,0,0,0,0],"sum_hessian":[5.502E3,1.06E2,5.396E3,1.02E2,4E0,6.4E1,5.332E3],"tree_param":{"num_deleted":"0","num_feature":"22","num_nodes":"7","size_leaf_vector":"1"}},{"base_weights":[7.219832E-5,-2.1313544E-2,2.5555032E-4,2.622899E-4,-6.7309354E-4,2.2262956E-4,5.72083E-7],"categories":[],"categories_nodes":[],"categories_segments":[],"categories_sizes":[],"default_left":[0,0,0,0,0,0,0],"id":52,"left_children":[1,3,5,-1,-1,-1,-1],"loss_changes":[2.1679651E-2,2.217623E-2,1.3524418E-2,0E0,0E0,0E0,0E0],"parents":[2147483647,0,0,1,1,2,2],"right_children":[2,4,6,-1,-1,-1,-1],"split_conditions":[-7.2983764E-2,-3.280486E-3,-5.3317446E-2,2.622899E-4,-6.7309354E-4,2.2262956E-4,5.72083E-7],"split_indices":[1,12,0,0,0,0,0],"split_type":[0,0,0,0,0,0,0],"sum_hessian":[5.517E3,4.2E1,5.475E3,1.1E1,3.1E1,1.07E2,5.368E3],"tree_param":{"num_deleted":"0","num_feature":"22","num_nodes":"7","size_leaf_vector":"1"}},{"base_weights":[1.2166041E-4,3.2567434E-2,-1.7427014E-5,1.0184905E-3,-5.103697E-5,-4.9060595E-6,3.5509828E-4],"categories":[],"categories_nodes":[],"categories_segments":[],"categories_sizes":[],"default_left":[0,0,0,0,0,0,0],"id":53,"left_children":[1,3,5,-1,-1,-1,-1],"loss_changes":[2.5373794E-2,1.6122267E-2,2.2713304E-2,0E0,0E0,0E0,0E0],"parents":[2147483647,0,0,1,1,2,2],"right_children":[2,4,6,-1,-1,-1,-1],"split_conditions":[-1.8039845E-2,-3.280486E-3,2.5413018E-2,1.0184905E-3,-5.103697E-5,-4.9060595E-6,3.5509828E-4],"split_indices":[7,12,6,0,0,0,0],"split_type":[0,0,0,0,0,0,0],"sum_hessian":[5.617E3,1.9E1,5.598E3,1.1E1,8E0,5.532E3,6.6E1],"tree_param":{"num_deleted":"0","num_feature":"22","num_nodes":"7","size_leaf_vector":"1"}},{"base_weights":[2.435605E-4,2.1095606E-2,8.655488E-5,5.8566843E-4,-1.0307104E-4,-6.8536683E-6,1.1740892E-4],"categories":[],"categories_nodes":[],"categories_segments":[],"categories_sizes":[],"default_left":[0,0,0,0,0,0,0],"id":54,"left_children":[1,3,5,-1,-1,-1,-1],"loss_changes":[1.7961243E-2,9.566424E-3,1.3548045E-2,0E0,0E0,0E0,0E0],"parents":[2147483647,0,0,1,1,2,2],"right_children":[2,4,6,-1,-1,-1,-1],"split_conditions":[-7.2983764E-2,-2.1448543E-2,1.0948936E-2,5.8566843E-4,-1.0307104E-4,-6.8536683E-6,1.1740892E-4],"split_indices":[0,12,6,0,0,0,0],"split_type":[0,0,0,0,0,0,0],"sum_hessian":[5.484E3,3.6E1,5.448E3,2.7E1,9E0,5.076E3,3.72E2],"tree_param":{"num_deleted":"0","num_feature":"22","num_nodes":"7","size_leaf_vector":"1"}},{"base_weights":[-1.2489414E-4,1.4076141E-2,-3.825542E-4,3.7298363E-4,-4.0698342E-4,-3.6845056E-6,-3.9668987E-4],"categories":[],"categories_nodes":[],"categories_segments":[],"categories_sizes":[],"default_left":[0,0,0,0,0,0,0],"id":55,"left_children":[1,3,5,-1,-1,-1,-1],"loss_changes":[2.0327276E-2,1.748288E-2,2.102262E-2,0E0,0E0,0E0,0E0],"parents":[2147483647,0,0,1,1,2,2],"right_children":[2,4,6,-1,-1,-1,-1],"split_conditions":[-5.3317446E-2,-5.595202E-3,7.245898E-2,3.7298363E-4,-4.0698342E-4,-3.6845056E-6,-3.9668987E-4],"split_indices":[0,12,8,0,0,0,0],"split_type":[0,0,0,0,0,0,0],"sum_hessian":[5.543E3,9.4E1,5.449E3,8.5E1,9E0,5.399E3,5E1],"tree_param":{"num_deleted":"0","num_feature":"22","num_nodes":"7","size_leaf_vector":"1"}},{"base_weights":[1.13593356E-4,2.2761812E-2,-4.872371E-6,6.4321555E-4,-2.2353226E-4,3.0924784E-6,-3.1327113E-4],"categories":[],"categories_nodes":[],"categories_segments":[],"categories_sizes":[],"default_left":[0,0,0,0,0,0,0],"id":56,"left_children":[1,3,5,-1,-1,-1,-1],"loss_changes":[1.4953123E-2,1.1047839E-2,1.387075E-2,0E0,0E0,0E0,0E0],"parents":[2147483647,0,0,1,1,2,2],"right_children":[2,4,6,-1,-1,-1,-1],"split_conditions":[-5.4534793E-2,4.824854E-2,3.765571E-2,6.4321555E-4,-2.2353226E-4,3.0924784E-6,-3.1327113E-4],"split_indices":[12,4,12,0,0,0,0],"split_type":[0,0,0,0,0,0,0],"sum_hessian":[5.568E3,2.4E1,5.544E3,1.9E1,5E0,5.493E3,5.1E1],"tree_param":{"num_deleted":"0","num_feature":"22","num_nodes":"7","size_leaf_vector":"1"}},{"base_weights":[-2.279597E-4,-4.8057966E-5,-1.3488819E-2,-3.3126867E-6,5.324479E-4,-8.091041E-4,-1.2229514E-4],"categories":[],"categories_nodes":[],"categories_segments":[],"categories_sizes":[],"default_left":[0,0,0,0,0,0,0],"id":57,"left_children":[1,3,5,-1,-1,-1,-1],"loss_changes":[1.3189412E-2,1.7146735E-2,1.3478166E-2,0E0,0E0,0E0,0E0],"parents":[2147483647,0,0,1,1,2,2],"right_children":[2,4,6,-1,-1,-1,-1],"split_conditions":[3.5660636E-2,1.0196776E-1,-7.2983764E-2,-3.3126867E-6,5.324479E-4,-8.091041E-4,-1.2229514E-4],"split_indices":[12,2,1,0,0,0,0],"split_type":[0,0,0,0,0,0,0],"sum_hessian":[5.525E3,5.456E3,6.9E1,5.437E3,1.9E1,1E1,5.9E1],"tree_param":{"num_deleted":"0","num_feature":"22","num_nodes":"7","size_leaf_vector":"1"}},{"base_weights":[7.8771445E-5,2.6932746E-4,-1.8204628E-2,4.201633E-4,1.8018094E-6,-9.1126125E-4,-1.1131228E-4],"categories":[],"categories_nodes":[],"categories_segments":[],"categories_sizes":[],"default_left":[0,0,0,0,0,0,0],"id":58,"left_children":[1,3,5,-1,-1,-1,-1],"loss_changes":[1.8914828E-2,1.9955441E-2,1.809595E-2,0E0,0E0,0E0,0E0],"parents":[2147483647,0,0,1,1,2,2],"right_children":[2,4,6,-1,-1,-1,-1],"split_conditions":[3.765571E-2,-1.5199119E-1,-6.4949684E-2,4.201633E-4,1.8018094E-6,-9.1126125E-4,-1.1131228E-4],"split_indices":[12,10,1,0,0,0,0],"split_type":[0,0,0,0,0,0,0],"sum_hessian":[5.417E3,5.366E3,5.1E1,4.1E1,5.325E3,1.2E1,3.9E1],"tree_param":{"num_deleted":"0","num_feature":"22","num_nodes":"7","size_leaf_vector":"1"}},{"base_weights":[2.4400315E-4,3.0390413E-2,1.0296351E-4,-9.5421994E-5,6.862904E-4,-6.4988385E-6,1.06188934E-4],"categories":[],"categories_nodes":[],"categories_segments":[],"categories_sizes":[],"default_left":[0,0,0,0,0,0,0],"id":59,"left_children":[1,3,5,-1,-1,-1,-1],"loss_changes":[2.373938E-2,4.406005E-3,1.2409022E-2,0E0,0E0,0E0,0E0],"parents":[2147483647,0,0,1,1,2,2],"right_children":[2,4,6,-1,-1,-1,-1],"split_conditions":[-5.4534793E-2,-9.2279166E-2,1.0208401E-2,-9.5421994E-5,6.862904E-4,-6.4988385E-6,1.06188934E-4],"split_indices":[12,3,6,0,0,0,0],"split_type":[0,0,0,0,0,0,0],"sum_hessian":[5.582E3,2.1E1,5.561E3,2E0,1.9E1,5.143E3,4.18E2],"tree_param":{"num_deleted":"0","num_feature":"22","num_nodes":"7","size_leaf_vector":"1"}},{"base_weights":[9.319109E-5,-1.2295925E-4,1.5420035E-2,-4.748255E-4,-4.8697785E-7,6.53081E-4,-4.2372145E-4],"categories":[],"categories_nodes":[],"categories_segments":[],"categories_sizes":[],"default_left":[0,0,0,0,0,0,0],"id":60,"left_children":[1,3,5,-1,-1,-1,-1],"loss_changes":[1.8581612E-2,1.2883524E-2,5.266693E-2,0E0,0E0,0E0,0E0],"parents":[2147483647,0,0,1,1,2,2],"right_children":[2,4,6,-1,-1,-1,-1],"split_conditions":[6.882873E-2,-9.2279166E-2,3.1793796E-2,-4.748255E-4,-4.8697785E-7,6.53081E-4,-4.2372145E-4],"split_indices":[9,1,3,0,0,0,0],"split_type":[0,0,0,0,0,0,0],"sum_hessian":[5.601E3,5.528E3,7.3E1,1.8E1,5.51E3,5E1,2.3E1],"tree_param":{"num_deleted":"0","num_feature":"22","num_nodes":"7","size_leaf_vector":"1"}},{"base_weights":[-8.1268954E-5,3.262229E-2,-2.116537E-4,7.469857E-4,-2.2214898E-4,-3.886186E-4,-5.737449E-7],"categories":[],"categories_nodes":[],"categories_segments":[],"categories_sizes":[],"default_left":[0,0,0,0,0,0,0],"id":61,"left_children":[1,3,5,-1,-1,-1,-1],"loss_changes":[2.3623219E-2,6.6219084E-3,1.9390615E-2,0E0,0E0,0E0,0E0],"parents":[2147483647,0,0,1,1,2,2],"right_children":[2,4,6,-1,-1,-1,-1],"split_conditions":[-5.4534793E-2,7.234137E-2,-7.2983764E-2,7.469857E-4,-2.2214898E-4,-3.886186E-4,-5.737449E-7],"split_indices":[12,4,1,0,0,0,0],"split_type":[0,0,0,0,0,0,0],"sum_hessian":[5.527E3,1.7E1,5.51E3,1.6E1,1E0,4.7E1,5.463E3],"tree_param":{"num_deleted":"0","num_feature":"22","num_nodes":"7","size_leaf_vector":"1"}},{"base_weights":[-1.3890171E-4,-4.8186418E-4,4.613733E-3,-1.8616875E-6,-1.2943601E-4,1.2393059E-4,-3.0350598E-4],"categories":[],"categories_nodes":[],"categories_segments":[],"categories_sizes":[],"default_left":[0,0,0,0,0,0,0],"id":62,"left_children":[1,3,5,-1,-1,-1,-1],"loss_changes":[9.008579E-3,1.199712E-2,1.2121961E-2,0E0,0E0,0E0,0E0],"parents":[2147483647,0,0,1,1,2,2],"right_children":[2,4,6,-1,-1,-1,-1],"split_conditions":[8.65684E-3,4.351158E-2,5.978737E-1,-1.8616875E-6,-1.2943601E-4,1.2393059E-4,-3.0350598E-4],"split_indices":[7,8,11,0,0,0,0],"split_type":[0,0,0,0,0,0,0],"sum_hessian":[5.515E3,5.148E3,3.67E2,4.839E3,3.09E2,3.43E2,2.4E1],"tree_param":{"num_deleted":"0","num_feature":"22","num_nodes":"7","size_leaf_vector":"1"}},{"base_weights":[1.4272552E-4,2.9662877E-2,8.04595E-6,1.0249079E-3,-1.1193487E-4,-8.349744E-6,1.2786814E-4],"categories":[],"categories_nodes":[],"categories_segments":[],"categories_sizes":[],"default_left":[0,0,0,0,0,0,0],"id":63,"left_children":[1,3,5,-1,-1,-1,-1],"loss_changes":[2.1885375E-2,2.0458823E-2,1.4917095E-2,0E0,0E0,0E0,0E0],"parents":[2147483647,0,0,1,1,2,2],"right_children":[2,4,6,-1,-1,-1,-1],"split_conditions":[-1.8039845E-2,3E0,9.01798E-3,1.0249079E-3,-1.1193487E-4,-8.349744E-6,1.2786814E-4],"split_indices":[7,13,7,0,0,0,0],"split_type":[0,0,0,0,0,0,0],"sum_hessian":[5.5E3,2E1,5.48E3,1.1E1,9E0,5.142E3,3.38E2],"tree_param":{"num_deleted":"0","num_feature":"22","num_nodes":"7","size_leaf_vector":"1"}},{"base_weights":[1.2427453E-4,9.861178E-3,-1.2186122E-4,1.0472033E-3,1.0245304E-4,-3.481683E-4,1.7043006E-7],"categories":[],"categories_nodes":[],"categories_segments":[],"categories_sizes":[],"default_left":[0,0,0,0,0,0,0],"id":64,"left_children":[1,3,5,-1,-1,-1,-1],"loss_changes":[1.31226005E-2,2.5845528E-2,1.2043159E-2,0E0,0E0,0E0,0E0],"parents":[2147483647,0,0,1,1,2,2],"right_children":[2,4,6,-1,-1,-1,-1],"split_conditions":[-4.925103E-2,-6.4949684E-2,-7.2983764E-2,1.0472033E-3,1.0245304E-4,-3.481683E-4,1.7043006E-7],"split_indices":[3,4,1,0,0,0,0],"split_type":[0,0,0,0,0,0,0],"sum_hessian":[5.468E3,1.3E2,5.338E3,8E0,1.22E2,3.5E1,5.303E3],"tree_param":{"num_deleted":"0","num_feature":"22","num_nodes":"7","size_leaf_vector":"1"}},{"base_weights":[2.7835052E-4,1.6444113E-2,1.2606052E-4,6.0574955E-4,-2.655428E-4,2.627604E-4,-9.115668E-7],"categories":[],"categories_nodes":[],"categories_segments":[],"categories_sizes":[],"default_left":[0,0,0,0,0,0,0],"id":65,"left_children":[1,3,5,-1,-1,-1,-1],"loss_changes":[1.3717101E-2,2.3405645E-2,1.2351231E-2,0E0,0E0,0E0,0E0],"parents":[2147483647,0,0,1,1,2,2],"right_children":[2,4,6,-1,-1,-1,-1],"split_conditions":[-7.2983764E-2,1.1572307E-2,-6.4949684E-2,6.0574955E-4,-2.655428E-4,2.627604E-4,-9.115668E-7],"split_indices":[3,12,0,0,0,0,0],"split_type":[0,0,0,0,0,0,0],"sum_hessian":[5.571E3,4.7E1,5.524E3,3.2E1,1.5E1,6.7E1,5.457E3],"tree_param":{"num_deleted":"0","num_feature":"22","num_nodes":"7","size_leaf_vector":"1"}},{"base_weights":[4.29746E-4,-5.2798958E-5,9.882191E-3,2.5649153E-4,-4.5399875E-6,5.242858E-4,6.628879E-5],"categories":[],"categories_nodes":[],"categories_segments":[],"categories_sizes":[],"default_left":[0,0,0,0,0,0,0],"id":66,"left_children":[1,3,5,-1,-1,-1,-1],"loss_changes":[2.5449708E-2,1.1932913E-2,2.8634427E-2,0E0,0E0,0E0,0E0],"parents":[2147483647,0,0,1,1,2,2],"right_children":[2,4,6,-1,-1,-1,-1],"split_conditions":[4.8735317E-2,-1.2350039E-1,-3.2942135E-2,2.5649153E-4,-4.5399875E-6,5.242858E-4,6.628879E-5],"split_indices":[9,10,3,0,0,0,0],"split_type":[0,0,0,0,0,0,0],"sum_hessian":[5.574E3,5.308E3,2.66E2,6.6E1,5.242E3,7.2E1,1.94E2],"tree_param":{"num_deleted":"0","num_feature":"22","num_nodes":"7","size_leaf_vector":"1"}},{"base_weights":[-2.770922E-5,1.6043961E-4,-1.6958833E-2,4.4848787E-4,-3.8840557E-7,-9.364643E-4,-9.7344535E-5],"categories":[],"categories_nodes":[],"categories_segments":[],"categories_sizes":[],"default_left":[0,0,0,0,0,0,0],"id":67,"left_children":[1,3,5,-1,-1,-1,-1],"loss_changes":[1.768078E-2,2.1986293E-2,2.088811E-2,0E0,0E0,0E0,0E0],"parents":[2147483647,0,0,1,1,2,2],"right_children":[2,4,6,-1,-1,-1,-1],"split_conditions":[3.765571E-2,-3.1176375E-2,-7.2983764E-2,4.4848787E-4,-3.8840557E-7,-9.364643E-4,-9.7344535E-5],"split_indices":[12,5,1,0,0,0,0],"split_type":[0,0,0,0,0,0,0],"sum_hessian":[5.541E3,5.485E3,5.6E1,3.9E1,5.446E3,1.2E1,4.4E1],"tree_param":{"num_deleted":"0","num_feature":"22","num_nodes":"7","size_leaf_vector":"1"}},{"base_weights":[-1.1837382E-4,6.973157E-5,-1.6777392E-2,6.306216E-4,-1.48035E-6,-9.382334E-4,-6.2031904E-5],"categories":[],"categories_nodes":[],"categories_segments":[],"categories_sizes":[],"default_left":[0,0,0,0,0,0,0],"id":68,"left_children":[1,3,5,-1,-1,-1,-1],"loss_changes":[1.7400747E-2,2.48585E-2,2.4823327E-2,0E0,0E0,0E0,0E0],"parents":[2147483647,0,0,1,1,2,2],"right_children":[2,4,6,-1,-1,-1,-1],"split_conditions":[3.765571E-2,-1.8039845E-2,-7.2983764E-2,6.306216E-4,-1.48035E-6,-9.382334E-4,-6.2031904E-5],"split_indices":[12,7,1,0,0,0,0],"split_type":[0,0,0,0,0,0,0],"sum_hessian":[5.546E3,5.489E3,5.7E1,2E1,5.469E3,1.4E1,4.3E1],"tree_param":{"num_deleted":"0","num_feature":"22","num_nodes":"7","size_leaf_vector":"1"}},{"base_weights":[3.0052188E-4,1.2066805E-2,5.683397E-5,3.409032E-4,-3.357302E-4,-1.7228093E-6,3.9545374E-4],"categories":[],"categories_nodes":[],"categories_segments":[],"categories_sizes":[],"default_left":[0,0,0,0,0,0,0],"id":69,"left_children":[1,3,5,-1,-1,-1,-1],"loss_changes":[1.5826939E-2,1.7518556E-2,1.526984E-2,0E0,0E0,0E0,0E0],"parents":[2147483647,0,0,1,1,2,2],"right_children":[2,4,6,-1,-1,-1,-1],"split_conditions":[-5.3317446E-2,7.3484196E-3,7.536887E-2,3.409032E-4,-3.357302E-4,-1.7228093E-6,3.9545374E-4],"split_indices":[0,6,9,0,0,0,0],"split_type":[0,0,0,0,0,0,0],"sum_hessian":[5.516E3,1.07E2,5.409E3,9.3E1,1.4E1,5.375E3,3.4E1],"tree_param":{"num_deleted":"0","num_feature":"22","num_nodes":"7","size_leaf_vector":"1"}},{"base_weights":[3.127313E-5,-1.4674681E-4,1.971359E-2,7.638451E-7,-3.925896E-4,7.0544914E-4,-8.980551E-5],"categories":[],"categories_nodes":[],"categories_segments":[],"categories_sizes":[],"default_left":[0,0,0,0,0,0,0],"id":70,"left_children":[1,3,5,-1,-1,-1,-1],"loss_changes":[1.9544896E-2,1.992539E-2,1.9621145E-2,0E0,0E0,0E0,0E0],"parents":[2147483647,0,0,1,1,2,2],"right_children":[2,4,6,-1,-1,-1,-1],"split_conditions":[7.536887E-2,3.765571E-2,1.6114866E-2,7.638451E-7,-3.925896E-4,7.0544914E-4,-8.980551E-5],"split_indices":[9,12,3,0,0,0,0],"split_type":[0,0,0,0,0,0,0],"sum_hessian":[5.569E3,5.524E3,4.5E1,5.477E3,4.7E1,2.6E1,1.9E1],"tree_param":{"num_deleted":"0","num_feature":"22","num_nodes":"7","size_leaf_vector":"1"}},{"base_weights":[-8.033809E-5,1.4308244E-2,-3.7145463E-4,7.62485E-4,1.2917454E-4,-4.7272336E-4,-3.9439656E-6],"categories":[],"categories_nodes":[],"categories_segments":[],"categories_sizes":[],"default_left":[0,0,0,0,0,0,0],"id":71,"left_children":[1,3,5,-1,-1,-1,-1],"loss_changes":[2.3022836E-2,1.9145744E-2,2.1811668E-2,0E0,0E0,0E0,0E0],"parents":[2147483647,0,0,1,1,2,2],"right_children":[2,4,6,-1,-1,-1,-1],"split_conditions":[-5.3317446E-2,-1.5199119E-1,-7.2983764E-2,7.62485E-4,1.2917454E-4,-4.7272336E-4,-3.9439656E-6],"split_indices":[0,10,1,0,0,0,0],"split_type":[0,0,0,0,0,0,0],"sum_hessian":[5.485E3,1.04E2,5.381E3,2.1E1,8.3E1,3.5E1,5.346E3],"tree_param":{"num_deleted":"0","num_feature":"22","num_nodes":"7","size_leaf_vector":"1"}},{"base_weights":[1.1388058E-4,1.1569391E-2,-1.3557528E-4,-5.582659E-4,2.7587308E-4,-5.6715558E-6,3.001955E-4],"categories":[],"categories_nodes":[],"categories_segments":[],"categories_sizes":[],"default_left":[0,0,0,0,0,0,0],"id":72,"left_children":[1,3,5,-1,-1,-1,-1],"loss_changes":[1.5956357E-2,1.2375696E-2,1.2275837E-2,0E0,0E0,0E0,0E0],"parents":[2147483647,0,0,1,1,2,2],"right_children":[2,4,6,-1,-1,-1,-1],"split_conditions":[-5.3317446E-2,-9.2279166E-2,6.882873E-2,-5.582659E-4,2.7587308E-4,-5.6715558E-6,3.001955E-4],"split_indices":[0,4,9,0,0,0,0],"split_type":[0,0,0,0,0,0,0],"sum_hessian":[5.576E3,1.14E2,5.462E3,3E0,1.11E2,5.414E3,4.8E1],"tree_param":{"num_deleted":"0","num_feature":"22","num_nodes":"7","size_leaf_vector":"1"}},{"base_weights":[-3.736254E-4,-1.6728204E-2,-2.1674961E-4,-2.9921162E-5,-8.5580675E-4,4.414042E-4,-5.7288107E-6],"categories":[],"categories_nodes":[],"categories_segments":[],"categories_sizes":[],"default_left":[0,0,0,0,0,0,0],"id":73,"left_children":[1,3,5,-1,-1,-1,-1],"loss_changes":[1.4041565E-2,2.0322992E-2,8.4701395E-3,0E0,0E0,0E0,0E0],"parents":[2147483647,0,0,1,1,2,2],"right_children":[2,4,6,-1,-1,-1,-1],"split_conditions":[-7.2983764E-2,6.705032E-2,-1.8039845E-2,-2.9921162E-5,-8.5580675E-4,4.414042E-4,-5.7288107E-6],"split_indices":[1,8,7,0,0,0,0],"split_type":[0,0,0,0,0,0,0],"sum_hessian":[5.475E3,4.7E1,5.428E3,3.3E1,1.4E1,1.2E1,5.416E3],"tree_param":{"num_deleted":"0","num_feature":"22","num_nodes":"7","size_leaf_vector":"1"}},{"base_weights":[-1.5250825E-4,1.0501566E-2,-3.704746E-4,1.16305426E-4,5.4742605E-4,-3.9453644E-4,-2.6073926E-6],"categories":[],"categories_nodes":[],"categories_segments":[],"categories_sizes":[],"default_left":[0,0,0,0,0,0,0],"id":74,"left_children":[1,3,5,-1,-1,-1,-1],"loss_changes":[1.2972849E-2,8.058475E-3,2.5413912E-2,0E0,0E0,0E0,0E0],"parents":[2147483647,0,0,1,1,2,2],"right_children":[2,4,6,-1,-1,-1,-1],"split_conditions":[-5.3317446E-2,7.5558517E-3,-1.7470064E-2,1.16305426E-4,5.4742605E-4,-3.9453644E-4,-2.6073926E-6],"split_indices":[0,7,6,0,0,0,0],"split_type":[0,0,0,0,0,0,0],"sum_hessian":[5.573E3,1.07E2,5.466E3,8.9E1,1.8E1,6.2E1,5.404E3],"tree_param":{"num_deleted":"0","num_feature":"22","num_nodes":"7","size_leaf_vector":"1"}},{"base_weights":[1.5338513E-4,3.2438166E-4,-1.605439E-2,8.3281685E-7,1.6691702E-4,-9.807813E-4,-6.235301E-5],"categories":[],"categories_nodes":[],"categories_segments":[],"categories_sizes":[],"default_left":[0,0,0,0,0,0,0],"id":75,"left_children":[1,3,5,-1,-1,-1,-1],"loss_changes":[1.539663E-2,1.2456368E-2,2.3984985E-2,0E0,0E0,0E0,0E0],"parents":[2147483647,0,0,1,1,2,2],"right_children":[2,4,6,-1,-1,-1,-1],"split_conditions":[3.765571E-2,5.2335158E-2,-7.2983764E-2,8.3281685E-7,1.6691702E-4,-9.807813E-4,-6.235301E-5],"split_indices":[12,9,1,0,0,0,0],"split_type":[0,0,0,0,0,0,0],"sum_hessian":[5.541E3,5.488E3,5.3E1,5.306E3,1.82E2,1.1E1,4.2E1],"tree_param":{"num_deleted":"0","num_feature":"22","num_nodes":"7","size_leaf_vector":"1"}},{"base_weights":[-3.2266977E-5,1.687748E-2,-2.5005193E-4,6.303968E-4,2.8790905E-7,-6.0277234E-4,-2.603227E-6],"categories":[],"categories_nodes":[],"categories_segments":[],"categories_sizes":[],"default_left":[0,0,0,0,0,0,0],"id":76,"left_children":[1,3,5,-1,-1,-1,-1],"loss_changes":[2.0563137E-2,1.7528722E-2,1.9731855E-2,0E0,0E0,0E0,0E0],"parents":[2147483647,0,0,1,1,2,2],"right_children":[2,4,6,-1,-1,-1,-1],"split_conditions":[-6.4949684E-2,3E0,-9.2279166E-2,6.303968E-4,2.8790905E-7,-6.0277234E-4,-2.603227E-6],"split_indices":[3,13,1,0,0,0,0],"split_type":[0,0,0,0,0,0,0],"sum_hessian":[5.573E3,6.6E1,5.507E3,3.3E1,3.3E1,1.7E1,5.49E3],"tree_param":{"num_deleted":"0","num_feature":"22","num_nodes":"7","size_leaf_vector":"1"}},{"base_weights":[1.5017773E-4,2.945615E-4,-1.0538515E-2,-9.727355E-7,1.3417598E-4,-6.020924E-4,-5.0914856E-5],"categories":[],"categories_nodes":[],"categories_segments":[],"categories_sizes":[],"default_left":[0,0,0,0,0,0,0],"id":77,"left_children":[1,3,5,-1,-1,-1,-1],"loss_changes":[8.568344E-3,1.204965E-2,1.11894775E-2,0E0,0E0,0E0,0E0],"parents":[2147483647,0,0,1,1,2,2],"right_children":[2,4,6,-1,-1,-1,-1],"split_conditions":[3.5660636E-2,4.634192E-2,-4.6794713E-2,-9.727355E-7,1.3417598E-4,-6.020924E-4,-5.0914856E-5],"split_indices":[12,9,1,0,0,0,0],"split_type":[0,0,0,0,0,0,0],"sum_hessian":[5.537E3,5.468E3,6.9E1,5.195E3,2.73E2,1.6E1,5.3E1],"tree_param":{"num_deleted":"0","num_feature":"22","num_nodes":"7","size_leaf_vector":"1"}},{"base_weights":[3.048564E-4,1.5939845E-2,9.657046E-5,8.620893E-4,8.659821E-5,4.802522E-6,-3.26314E-4],"categories":[],"categories_nodes":[],"categories_segments":[],"categories_sizes":[],"default_left":[0,0,0,0,0,0,0],"id":78,"left_children":[1,3,5,-1,-1,-1,-1],"loss_changes":[1.7834928E-2,2.1774132E-2,1.2770662E-2,0E0,0E0,0E0,0E0],"parents":[2147483647,0,0,1,1,2,2],"right_children":[2,4,6,-1,-1,-1,-1],"split_conditions":[-6.4949684E-2,1E0,2.0967126E-2,8.620893E-4,8.659821E-5,4.802522E-6,-3.26314E-4],"split_indices":[3,13,7,0,0,0,0],"split_type":[0,0,0,0,0,0,0],"sum_hessian":[5.474E3,6.7E1,5.407E3,1.6E1,5.1E1,5.365E3,4.2E1],"tree_param":{"num_deleted":"0","num_feature":"22","num_nodes":"7","size_leaf_vector":"1"}},{"base_weights":[1.5319332E-4,-8.301846E-5,1.9104872E-2,9.96784E-7,-3.287846E-4,7.713268E-4,-1.7630555E-4],"categories":[],"categories_nodes":[],"categories_segments":[],"categories_sizes":[],"default_left":[0,0,0,0,0,0,0],"id":79,"left_children":[1,3,5,-1,-1,-1,-1],"loss_changes":[2.4727767E-2,1.1866767E-2,3.8648833E-2,0E0,0E0,0E0,0E0],"parents":[2147483647,0,0,1,1,2,2],"right_children":[2,4,6,-1,-1,-1,-1],"split_conditions":[6.882873E-2,7.245898E-2,1.6114866E-2,9.96784E-7,-3.287846E-4,7.713268E-4,-1.7630555E-4],"split_indices":[9,8,3,0,0,0,0],"split_type":[0,0,0,0,0,0,0],"sum_hessian":[5.517E3,5.454E3,6.3E1,5.415E3,3.9E1,3.6E1,2.7E1],"tree_param":{"num_deleted":"0","num_feature":"22","num_nodes":"7","size_leaf_vector":"1"}},{"base_weights":[-1.1287695E-4,-2.340537E-5,-1.7712232E-2,-2.9346207E-4,1.8330396E-6,-5.9421384E-4,5.1799947E-5],"categories":[],"categories_nodes":[],"categories_segments":[],"categories_sizes":[],"default_left":[0,0,0,0,0,0,0],"id":80,"left_children":[1,3,5,-1,-1,-1,-1],"loss_changes":[8.716721E-3,9.300878E-3,7.2054276E-3,0E0,0E0,0E0,0E0],"parents":[2147483647,0,0,1,1,2,2],"right_children":[2,4,6,-1,-1,-1,-1],"split_conditions":[5.978737E-1,-7.2983764E-2,2.4413394E-2,-2.9346207E-4,1.8330396E-6,-5.9421384E-4,5.1799947E-5],"split_indices":[11,1,2,0,0,0,0],"split_type":[0,0,0,0,0,0,0],"sum_hessian":[5.532E3,5.509E3,2.3E1,3.8E1,5.471E3,1.3E1,1E1],"tree_param":{"num_deleted":"0","num_feature":"22","num_nodes":"7","size_leaf_vector":"1"}},{"base_weights":[-2.3587453E-4,2.9226609E-2,-3.6443403E-4,-5.9425907E-5,8.1569207E-4,4.8097587E-4,-9.333929E-6],"categories":[],"categories_nodes":[],"categories_segments":[],"categories_sizes":[],"default_left":[0,0,0,0,0,0,0],"id":81,"left_children":[1,3,5,-1,-1,-1,-1],"loss_changes":[2.0923387E-2,9.537352E-3,1.3764702E-2,0E0,0E0,0E0,0E0],"parents":[2147483647,0,0,1,1,2,2],"right_children":[2,4,6,-1,-1,-1,-1],"split_conditions":[-9.2279166E-2,5.216842E-2,-9.2279166E-2,-5.9425907E-5,8.1569207E-4,4.8097587E-4,-9.333929E-6],"split_indices":[0,8,3,0,0,0,0],"split_type":[0,0,0,0,0,0,0],"sum_hessian":[5.505E3,1.9E1,5.486E3,6E0,1.3E1,1.8E1,5.468E3],"tree_param":{"num_deleted":"0","num_feature":"22","num_nodes":"7","size_leaf_vector":"1"}},{"base_weights":[9.2692666E-5,1.3179491E-2,-2.150613E-4,4.9105333E-4,-1.00326506E-4,-4.43721E-4,-2.4200667E-6],"categories":[],"categories_nodes":[],"categories_segments":[],"categories_sizes":[],"default_left":[0,0,0,0,0,0,0],"id":82,"left_children":[1,3,5,-1,-1,-1,-1],"loss_changes":[2.226216E-2,2.6897736E-2,1.115006E-2,0E0,0E0,0E0,0E0],"parents":[2147483647,0,0,1,1,2,2],"right_children":[2,4,6,-1,-1,-1,-1],"split_conditions":[-4.925103E-2,4.865076E-3,-9.2279166E-2,4.9105333E-4,-1.00326506E-4,-4.43721E-4,-2.4200667E-6],"split_indices":[3,12,1,0,0,0,0],"split_type":[0,0,0,0,0,0,0],"sum_hessian":[5.519E3,1.22E2,5.397E3,7.4E1,4.8E1,1.8E1,5.379E3],"tree_param":{"num_deleted":"0","num_feature":"22","num_nodes":"7","size_leaf_vector":"1"}},{"base_weights":[4.3230335E-5,5.4468582E-3,-3.5004754E-4,6.602216E-4,7.554416E-5,-3.7031938E-4,-4.114048E-6],"categories":[],"categories_nodes":[],"categories_segments":[],"categories_sizes":[],"default_left":[0,0,0,0,0,0,0],"id":83,"left_children":[1,3,5,-1,-1,-1,-1],"loss_changes":[1.1871994E-2,1.6819123E-2,1.3637178E-2,0E0,0E0,0E0,0E0],"parents":[2147483647,0,0,1,1,2,2],"right_children":[2,4,6,-1,-1,-1,-1],"split_conditions":[-2.9328184E-2,-6.4949684E-2,-7.2983764E-2,6.602216E-4,7.554416E-5,-3.7031938E-4,-4.114048E-6],"split_indices":[3,4,1,0,0,0,0],"split_type":[0,0,0,0,0,0,0],"sum_hessian":[5.577E3,3.74E2,5.203E3,1.6E1,3.58E2,3.6E1,5.167E3],"tree_param":{"num_deleted":"0","num_feature":"22","num_nodes":"7","size_leaf_vector":"1"}},{"base_weights":[-4.2805675E-4,-1.6388904E-2,-2.8747835E-4,-2.0022282E-5,-9.981667E-4,-7.692767E-6,4.1862935E-4],"categories":[],"categories_nodes":[],"categories_segments":[],"categories_sizes":[],"default_left":[0,0,0,0,0,0,0],"id":84,"left_children":[1,3,5,-1,-1,-1,-1],"loss_changes":[1.2335019E-2,2.45081E-2,1.1307079E-2,0E0,0E0,0E0,0E0],"parents":[2147483647,0,0,1,1,2,2],"right_children":[2,4,6,-1,-1,-1,-1],"split_conditions":[-7.2983764E-2,4.887071E-2,9.833126E-2,-2.0022282E-5,-9.981667E-4,-7.692767E-6,4.1862935E-4],"split_indices":[1,12,8,0,0,0,0],"split_type":[0,0,0,0,0,0,0],"sum_hessian":[5.503E3,4.3E1,5.46E3,3.3E1,1E1,5.44E3,2E1],"tree_param":{"num_deleted":"0","num_feature":"22","num_nodes":"7","size_leaf_vector":"1"}},{"base_weights":[-1.0779645E-4,2.2191454E-2,-2.2463899E-4,7.7385E-4,-3.4613808E-4,3.2705466E-6,-1.012247E-4],"categories":[],"categories_nodes":[],"categories_segments":[],"categories_sizes":[],"default_left":[0,0,0,0,0,0,0],"id":85,"left_children":[1,3,5,-1,-1,-1,-1],"loss_changes":[1.4495878E-2,2.2249399E-2,1.0386182E-2,0E0,0E0,0E0,0E0],"parents":[2147483647,0,0,1,1,2,2],"right_children":[2,4,6,-1,-1,-1,-1],"split_conditions":[-1.8039845E-2,4E0,4.351158E-2,7.7385E-4,-3.4613808E-4,3.2705466E-6,-1.012247E-4],"split_indices":[7,13,8,0,0,0,0],"split_type":[0,0,0,0,0,0,0],"sum_hessian":[5.549E3,2.4E1,5.525E3,1.7E1,7E0,5.119E3,4.06E2],"tree_param":{"num_deleted":"0","num_feature":"22","num_nodes":"7","size_leaf_vector":"1"}},{"base_weights":[2.3585177E-4,2.1804515E-2,1.0650758E-4,7.5680093E-4,1.3212899E-4,-3.2292752E-4,4.9212044E-6],"categories":[],"categories_nodes":[],"categories_segments":[],"categories_sizes":[],"default_left":[0,0,0,0,0,0,0],"id":86,"left_children":[1,3,5,-1,-1,-1,-1],"loss_changes":[1.5443777E-2,6.792456E-3,1.25218155E-2,0E0,0E0,0E0,0E0],"parents":[2147483647,0,0,1,1,2,2],"right_children":[2,4,6,-1,-1,-1,-1],"split_conditions":[-5.4534793E-2,-2.6249293E-2,-7.2983764E-2,7.5680093E-4,1.3212899E-4,-3.2292752E-4,4.9212044E-6],"split_indices":[12,1,1,0,0,0,0],"split_type":[0,0,0,0,0,0,0],"sum_hessian":[5.535E3,2.8E1,5.507E3,1E1,1.8E1,4.2E1,5.465E3],"tree_param":{"num_deleted":"0","num_feature":"22","num_nodes":"7","size_leaf_vector":"1"}},{"base_weights":[3.481958E-5,1.9746283E-2,-1.380882E-4,7.752881E-4,-1.870527E-4,8.831236E-7,-2.4244476E-4],"categories":[],"categories_nodes":[],"categories_segments":[],"categories_sizes":[],"default_left":[0,0,0,0,0,0,0],"id":87,"left_children":[1,3,5,-1,-1,-1,-1],"loss_changes":[1.8813627E-2,2.8376272E-2,1.19559495E-2,0E0,0E0,0E0,0E0],"parents":[2147483647,0,0,1,1,2,2],"right_children":[2,4,6,-1,-1,-1,-1],"split_conditions":[-7.2983764E-2,2.374727E-3,3.5660636E-2,7.752881E-4,-1.870527E-4,8.831236E-7,-2.4244476E-4],"split_indices":[3,12,12,0,0,0,0],"split_type":[0,0,0,0,0,0,0],"sum_hessian":[5.511E3,4.3E1,5.468E3,2.5E1,1.8E1,5.391E3,7.7E1],"tree_param":{"num_deleted":"0","num_feature":"22","num_nodes":"7","size_leaf_vector":"1"}},{"base_weights":[9.3875555E-5,-7.517164E-5,1.947522E-2,-1.5937386E-4,2.5527063E-6,6.140384E-4,-4.5117896E-4],"categories":[],"categories_nodes":[],"categories_segments":[],"categories_sizes":[],"default_left":[0,0,0,0,0,0,0],"id":88,"left_children":[1,3,5,-1,-1,-1,-1],"loss_changes":[1.818785E-2,8.819426E-3,2.611446E-2,0E0,0E0,0E0,0E0],"parents":[2147483647,0,0,1,1,2,2],"right_children":[2,4,6,-1,-1,-1,-1],"split_conditions":[7.536887E-2,-4.925103E-2,5.9506543E-2,-1.5937386E-4,2.5527063E-6,6.140384E-4,-4.5117896E-4],"split_indices":[9,2,3,0,0,0,0],"split_type":[0,0,0,0,0,0,0],"sum_hessian":[5.544E3,5.501E3,4.3E1,1.33E2,5.368E3,3.5E1,8E0],"tree_param":{"num_deleted":"0","num_feature":"22","num_nodes":"7","size_leaf_vector":"1"}},{"base_weights":[1.1861888E-4,2.2939358E-2,7.811656E-6,6.001316E-4,-2.5198812E-4,-1.98134E-6,3.8213603E-4],"categories":[],"categories_nodes":[],"categories_segments":[],"categories_sizes":[],"default_left":[0,0,0,0,0,0,0],"id":89,"left_children":[1,3,5,-1,-1,-1,-1],"loss_changes":[1.4129495E-2,8.671655E-3,1.1371196E-2,0E0,0E0,0E0,0E0],"parents":[2147483647,0,0,1,1,2,2],"right_children":[2,4,6,-1,-1,-1,-1],"split_conditions":[-5.4534793E-2,4.824854E-2,8.292539E-2,6.001316E-4,-2.5198812E-4,-1.98134E-6,3.8213603E-4],"split_indices":[12,4,9,0,0,0,0],"split_type":[0,0,0,0,0,0,0],"sum_hessian":[5.583E3,2.2E1,5.561E3,1.9E1,3E0,5.535E3,2.6E1],"tree_param":{"num_deleted":"0","num_feature":"22","num_nodes":"7","size_leaf_vector":"1"}},{"base_weights":[5.484517E-6,-1.7806797E-4,2.0787561E-2,-2.1483083E-7,-3.5050663E-4,5.2255543E-4,-3.4924282E-4],"categories":[],"categories_nodes":[],"categories_segments":[],"categories_sizes":[],"default_left":[0,0,0,0,0,0,0],"id":90,"left_children":[1,3,5,-1,-1,-1,-1],"loss_changes":[2.1349762E-2,1.6102992E-2,1.22900475E-2,0E0,0E0,0E0,0E0],"parents":[2147483647,0,0,1,1,2,2],"right_children":[2,4,6,-1,-1,-1,-1],"split_conditions":[7.536887E-2,7.245898E-2,1.6318023E-2,-2.1483083E-7,-3.5050663E-4,5.2255543E-4,-3.4924282E-4],"split_indices":[9,8,7,0,0,0,0],"split_type":[0,0,0,0,0,0,0],"sum_hessian":[5.587E3,5.543E3,4.4E1,5.495E3,4.8E1,4E1,4E0],"tree_param":{"num_deleted":"0","num_feature":"22","num_nodes":"7","size_leaf_vector":"1"}},{"base_weights":[-2.3055494E-4,-1.7839298E-2,-8.2722814E-5,6.248062E-5,-1.1624359E-3,6.393095E-4,-3.6431531E-6],"categories":[],"categories_nodes":[],"categories_segments":[],"categories_sizes":[],"default_left":[0,0,0,0,0,0,0],"id":91,"left_children":[1,3,5,-1,-1,-1,-1],"loss_changes":[1.43827675E-2,3.9752815E-2,1.7514577E-2,0E0,0E0,0E0,0E0],"parents":[2147483647,0,0,1,1,2,2],"right_children":[2,4,6,-1,-1,-1,-1],"split_conditions":[-7.2983764E-2,7.245898E-2,-1.8039845E-2,6.248062E-5,-1.1624359E-3,6.393095E-4,-3.6431531E-6],"split_indices":[1,8,7,0,0,0,0],"split_type":[0,0,0,0,0,0,0],"sum_hessian":[5.523E3,4.1E1,5.482E3,3E1,1.1E1,1.2E1,5.47E3],"tree_param":{"num_deleted":"0","num_feature":"22","num_nodes":"7","size_leaf_vector":"1"}},{"base_weights":[-3.412641E-5,9.916543E-3,-2.8796663E-4,-7.070789E-5,4.971843E-4,-1.49898E-5,1.00756835E-4],"categories":[],"categories_nodes":[],"categories_segments":[],"categories_sizes":[],"default_left":[0,0,0,0,0,0,0],"id":92,"left_children":[1,3,5,-1,-1,-1,-1],"loss_changes":[1.4012705E-2,2.8178528E-2,1.3314122E-2,0E0,0E0,0E0,0E0],"parents":[2147483647,0,0,1,1,2,2],"right_children":[2,4,6,-1,-1,-1,-1],"split_conditions":[-4.925103E-2,4.2387184E-2,9.9576255E-3,-7.070789E-5,4.971843E-4,-1.49898E-5,1.00756835E-4],"split_indices":[3,9,6,0,0,0,0],"split_type":[0,0,0,0,0,0,0],"sum_hessian":[5.537E3,1.33E2,5.404E3,7.2E1,6.1E1,4.977E3,4.27E2],"tree_param":{"num_deleted":"0","num_feature":"22","num_nodes":"7","size_leaf_vector":"1"}},{"base_weights":[2.9719993E-5,-1.15800765E-4,1.8018E-2,3.1734846E-4,-5.396114E-6,5.522735E-4,4.2929834E-5],"categories":[],"categories_nodes":[],"categories_segments":[],"categories_sizes":[],"default_left":[0,0,0,0,0,0,0],"id":93,"left_children":[1,3,5,-1,-1,-1,-1],"loss_changes":[1.4352637E-2,1.3411942E-2,6.4047407E-3,0E0,0E0,0E0,0E0],"parents":[2147483647,0,0,1,1,2,2],"right_children":[2,4,6,-1,-1,-1,-1],"split_conditions":[3.554687E-2,-7.2983764E-2,5.9506543E-2,3.1734846E-4,-5.396114E-6,5.522735E-4,4.2929834E-5],"split_indices":[5,3,2,0,0,0,0],"split_type":[0,0,0,0,0,0,0],"sum_hessian":[5.474E3,5.435E3,3.9E1,4.7E1,5.388E3,2.2E1,1.7E1],"tree_param":{"num_deleted":"0","num_feature":"22","num_nodes":"7","size_leaf_vector":"1"}},{"base_weights":[-9.387535E-5,1.0679805E-2,-3.5206813E-4,4.458002E-4,2.2335304E-5,-7.3130033E-4,-5.41756E-6],"categories":[],"categories_nodes":[],"categories_segments":[],"categories_sizes":[],"default_left":[0,0,0,0,0,0,0],"id":94,"left_children":[1,3,5,-1,-1,-1,-1],"loss_changes":[1.5331983E-2,1.41982585E-2,1.5771337E-2,0E0,0E0,0E0,0E0],"parents":[2147483647,0,0,1,1,2,2],"right_children":[2,4,6,-1,-1,-1,-1],"split_conditions":[-5.3317446E-2,-1.0718368E-1,-3.714488E-2,4.458002E-4,2.2335304E-5,-7.3130033E-4,-5.41756E-6],"split_indices":[0,10,5,0,0,0,0],"split_type":[0,0,0,0,0,0,0],"sum_hessian":[5.5E3,1.24E2,5.376E3,5.3E1,7.1E1,7E0,5.369E3],"tree_param":{"num_deleted":"0","num_feature":"22","num_nodes":"7","size_leaf_vector":"1"}},{"base_weights":[3.9328563E-5,-1.1670698E-4,1.6868955E-2,9.960584E-7,-2.646232E-4,5.7636143E-4,-3.6550773E-4],"categories":[],"categories_nodes":[],"categories_segments":[],"categories_sizes":[],"default_left":[0,0,0,0,0,0,0],"id":95,"left_children":[1,3,5,-1,-1,-1,-1],"loss_changes":[1.4579E-2,1.2017936E-2,2.4050443E-2,0E0,0E0,0E0,0E0],"parents":[2147483647,0,0,1,1,2,2],"right_children":[2,4,6,-1,-1,-1,-1],"split_conditions":[3.554687E-2,3.5660636E-2,4.582087E-2,9.960584E-7,-2.646232E-4,5.7636143E-4,-3.6550773E-4],"split_indices":[5,12,1,0,0,0,0],"split_type":[0,0,0,0,0,0,0],"sum_hessian":[5.543E3,5.497E3,4.6E1,5.433E3,6.4E1,3.5E1,1.1E1],"tree_param":{"num_deleted":"0","num_feature":"22","num_nodes":"7","size_leaf_vector":"1"}},{"base_weights":[-3.0872377E-4,1.2294188E-4,-4.8303306E-3,5.828788E-4,-2.1195066E-7,-4.8268435E-4,-4.290815E-5],"categories":[],"categories_nodes":[],"categories_segments":[],"categories_sizes":[],"default_left":[0,0,0,0,0,0,0],"id":96,"left_children":[1,3,5,-1,-1,-1,-1],"loss_changes":[1.0728232E-2,1.9460164E-2,2.4567418E-2,0E0,0E0,0E0,0E0],"parents":[2147483647,0,0,1,1,2,2],"right_children":[2,4,6,-1,-1,-1,-1],"split_conditions":[1.8519884E-2,-9.2279166E-2,-3.7514325E-2,5.828788E-4,-2.1195066E-7,-4.8268435E-4,-4.290815E-5],"split_indices":[12,3,1,0,0,0,0],"split_type":[0,0,0,0,0,0,0],"sum_hessian":[5.49E3,5.016E3,4.74E2,1.8E1,4.998E3,5.3E1,4.21E2],"tree_param":{"num_deleted":"0","num_feature":"22","num_nodes":"7","size_leaf_vector":"1"}},{"base_weights":[3.2765025E-4,1.1131419E-2,1.036641E-4,-5.6247175E-4,2.6918386E-4,-1.80685E-8,4.6058456E-4],"categories":[],"categories_nodes":[],"categories_segments":[],"categories_sizes":[],"default_left":[0,0,0,0,0,0,0],"id":97,"left_children":[1,3,5,-1,-1,-1,-1],"loss_changes":[1.3581939E-2,1.2309559E-2,1.3199471E-2,0E0,0E0,0E0,0E0],"parents":[2147483647,0,0,1,1,2,2],"right_children":[2,4,6,-1,-1,-1,-1],"split_conditions":[-5.3317446E-2,-9.2279166E-2,1.0196776E-1,-5.6247175E-4,2.6918386E-4,-1.80685E-8,4.6058456E-4],"split_indices":[0,4,2,0,0,0,0],"split_type":[0,0,0,0,0,0,0],"sum_hessian":[5.61E3,1.09E2,5.501E3,3E0,1.06E2,5.481E3,2E1],"tree_param":{"num_deleted":"0","num_feature":"22","num_nodes":"7","size_leaf_vector":"1"}},{"base_weights":[1.3774284E-5,1.8398212E-4,-1.2327225E-2,9.746233E-7,3.4639257E-4,8.6899614E-5,-4.3621208E-4],"categories":[],"categories_nodes":[],"categories_segments":[],"categories_sizes":[],"default_left":[0,0,0,0,0,0,0],"id":98,"left_children":[1,3,5,-1,-1,-1,-1],"loss_changes":[1.1425646E-2,1.2429772E-2,1.217389E-2,0E0,0E0,0E0,0E0],"parents":[2147483647,0,0,1,1,2,2],"right_children":[2,4,6,-1,-1,-1,-1],"split_conditions":[3.5660636E-2,7.536887E-2,2.7400337E-2,9.746233E-7,3.4639257E-4,8.6899614E-5,-4.3621208E-4],"split_indices":[12,9,8,0,0,0,0],"split_type":[0,0,0,0,0,0,0],"sum_hessian":[5.429E3,5.36E3,6.9E1,5.323E3,3.7E1,2.6E1,4.3E1],"tree_param":{"num_deleted":"0","num_feature":"22","num_nodes":"7","size_leaf_vector":"1"}},{"base_weights":[2.851228E-4,-2.3608802E-4,5.914049E-3,-2.6887992E-6,-4.304905E-4,6.489811E-4,1.0199726E-4],"categories":[],"categories_nodes":[],"categories_segments":[],"categories_sizes":[],"default_left":[0,0,0,0,0,0,0],"id":99,"left_children":[1,3,5,-1,-1,-1,-1],"loss_changes":[1.6201872E-2,1.0928517E-2,9.28344E-3,0E0,0E0,0E0,0E0],"parents":[2147483647,0,0,1,1,2,2],"right_children":[2,4,6,-1,-1,-1,-1],"split_conditions":[1.4866026E-1,2.0181961E-2,-6.939643E-3,-2.6887992E-6,-4.304905E-4,6.489811E-4,1.0199726E-4],"split_indices":[11,6,6,0,0,0,0],"split_type":[0,0,0,0,0,0,0],"sum_hessian":[5.515E3,5.052E3,4.63E2,5.033E3,1.9E1,8E0,4.55E2],"tree_param":{"num_deleted":"0","num_feature":"22","num_nodes":"7","size_leaf_vector":"1"}},{"base_weights":[5.6812547E-5,2.1348408E-4,-1.4312089E-2,5.2710186E-4,2.3597302E-6,-8.2800223E-4,-4.8307807E-5],"categories":[],"categories_nodes":[],"categories_segments":[],"categories_sizes":[],"default_left":[0,0,0,0,0,0,0],"id":100,"left_children":[1,3,5,-1,-1,-1,-1],"loss_changes":[1.2522931E-2,1.3717478E-2,1.8835496E-2,0E0,0E0,0E0,0E0],"parents":[2147483647,0,0,1,1,2,2],"right_children":[2,4,6,-1,-1,-1,-1],"split_conditions":[3.765571E-2,-1.8039845E-2,-7.2983764E-2,5.2710186E-4,2.3597302E-6,-8.2800223E-4,-4.8307807E-5],"split_indices":[12,7,1,0,0,0,0],"split_type":[0,0,0,0,0,0,0],"sum_hessian":[5.551E3,5.496E3,5.5E1,1.5E1,5.481E3,1.3E1,4.2E1],"tree_param":{"num_deleted":"0","num_feature":"22","num_nodes":"7","size_leaf_vector":"1"}},{"base_weights":[4.862304E-5,-4.860992E-4,5.050925E-3,3.0418884E-4,-1.2434681E-5,8.722212E-5,5.204191E-4],"categories":[],"categories_nodes":[],"categories_segments":[],"categories_sizes":[],"default_left":[0,0,0,0,0,0,0],"id":101,"left_children":[1,3,5,-1,-1,-1,-1],"loss_changes":[1.4790778E-2,1.0683082E-2,7.157184E-3,0E0,0E0,0E0,0E0],"parents":[2147483647,0,0,1,1,2,2],"right_children":[2,4,6,-1,-1,-1,-1],"split_conditions":[6.6404976E-3,-3.1176375E-2,7.912333E-2,3.0418884E-4,-1.2434681E-5,8.722212E-5,5.204191E-4],"split_indices":[7,5,8,0,0,0,0],"split_type":[0,0,0,0,0,0,0],"sum_hessian":[5.52E3,4.991E3,5.29E2,3.8E1,4.953E3,5.18E2,1.1E1],"tree_param":{"num_deleted":"0","num_feature":"22","num_nodes":"7","size_leaf_vector":"1"}},{"base_weights":[-1.4758001E-4,-3.6825307E-4,1.2457134E-2,-3.3175008E-4,-4.889358E-6,6.1312964E-4,-1.2499605E-4],"categories":[],"categories_nodes":[],"categories_segments":[],"categories_sizes":[],"default_left":[0,0,0,0,0,0,0],"id":102,"left_children":[1,3,5,-1,-1,-1,-1],"loss_changes":[1.5357461E-2,1.0867495E-2,3.3301126E-2,0E0,0E0,0E0,0E0],"parents":[2147483647,0,0,1,1,2,2],"right_children":[2,4,6,-1,-1,-1,-1],"split_conditions":[6.2567696E-2,-7.2983764E-2,1.8070658E-3,-3.3175008E-4,-4.889358E-6,6.1312964E-4,-1.2499605E-4],"split_indices":[9,1,3,0,0,0,0],"split_type":[0,0,0,0,0,0,0],"sum_hessian":[5.508E3,5.418E3,9E1,3.6E1,5.382E3,4.4E1,4.6E1],"tree_param":{"num_deleted":"0","num_feature":"22","num_nodes":"7","size_leaf_vector":"1"}},{"base_weights":[-1.0410013E-4,3.2843844E-4,-4.1013006E-3,6.2749424E-4,3.931634E-6,-2.4569326E-4,-8.872441E-6],"categories":[],"categories_nodes":[],"categories_segments":[],"categories_sizes":[],"default_left":[0,0,0,0,0,0,0],"id":103,"left_children":[1,3,5,-1,-1,-1,-1],"loss_changes":[9.5262965E-3,2.0326935E-2,1.6076228E-2,0E0,0E0,0E0,0E0],"parents":[2147483647,0,0,1,1,2,2],"right_children":[2,4,6,-1,-1,-1,-1],"split_conditions":[1.7043367E-2,-9.2279166E-2,-1.0044976E-3,6.2749424E-4,3.931634E-6,-2.4569326E-4,-8.872441E-6],"split_indices":[12,3,6,0,0,0,0],"split_type":[0,0,0,0,0,0,0],"sum_hessian":[5.501E3,4.968E3,5.33E2,1.6E1,4.952E3,1.61E2,3.72E2],"tree_param":{"num_deleted":"0","num_feature":"22","num_nodes":"7","size_leaf_vector":"1"}},{"base_weights":[1.9988543E-4,-1.771142E-2,3.4574687E-4,-6.493197E-4,1.01848884E-4,-9.916482E-7,1.1090939E-4],"categories":[],"categories_nodes":[],"categories_segments":[],"categories_sizes":[],"default_left":[0,0,0,0,0,0,0],"id":104,"left_children":[1,3,5,-1,-1,-1,-1],"loss_changes":[1.4553888E-2,1.596741E-2,1.1346245E-2,0E0,0E0,0E0,0E0],"parents":[2147483647,0,0,1,1,2,2],"right_children":[2,4,6,-1,-1,-1,-1],"split_conditions":[-7.2983764E-2,-5.436658E-3,1.0596326E-2,-6.493197E-4,1.01848884E-4,-9.916482E-7,1.1090939E-4],"split_indices":[1,7,6,0,0,0,0],"split_type":[0,0,0,0,0,0,0],"sum_hessian":[5.554E3,4E1,5.514E3,2.3E1,1.7E1,5.129E3,3.85E2],"tree_param":{"num_deleted":"0","num_feature":"22","num_nodes":"7","size_leaf_vector":"1"}},{"base_weights":[-7.166761E-6,1.5137171E-4,-1.5506495E-2,4.438745E-4,9.230777E-7,-7.065524E-4,-1.3472077E-4],"categories":[],"categories_nodes":[],"categories_segments":[],"categories_sizes":[],"default_left":[0,0,0,0,0,0,0],"id":105,"left_children":[1,3,5,-1,-1,-1,-1],"loss_changes":[1.3590444E-2,1.2692765E-2,8.545217E-3,0E0,0E0,0E0,0E0],"parents":[2147483647,0,0,1,1,2,2],"right_children":[2,4,6,-1,-1,-1,-1],"split_conditions":[3.765571E-2,-5.4534793E-2,-7.2983764E-2,4.438745E-4,9.230777E-7,-7.065524E-4,-1.3472077E-4],"split_indices":[12,12,1,0,0,0,0],"split_type":[0,0,0,0,0,0,0],"sum_hessian":[5.521E3,5.47E3,5.1E1,2.1E1,5.449E3,1.1E1,4E1],"tree_param":{"num_deleted":"0","num_feature":"22","num_nodes":"7","size_leaf_vector":"1"}},{"base_weights":[4.8925594E-6,-1.6979415E-2,1.2346306E-4,-6.920343E-5,-8.9658744E-4,3.7283267E-4,8.2820884E-7],"categories":[],"categories_nodes":[],"categories_segments":[],"categories_sizes":[],"default_left":[0,0,0,0,0,0,0],"id":106,"left_children":[1,3,5,-1,-1,-1,-1],"loss_changes":[1.1038258E-2,1.3531807E-2,8.266584E-3,0E0,0E0,0E0,0E0],"parents":[2147483647,0,0,1,1,2,2],"right_children":[2,4,6,-1,-1,-1,-1],"split_conditions":[-2.1818746E-2,-7.978166E-3,-9.2279166E-2,-6.920343E-5,-8.9658744E-4,3.7283267E-4,8.2820884E-7],"split_indices":[6,2,3,0,0,0,0],"split_type":[0,0,0,0,0,0,0],"sum_hessian":[5.471E3,3.3E1,5.438E3,2.6E1,7E0,1.9E1,5.419E3],"tree_param":{"num_deleted":"0","num_feature":"22","num_nodes":"7","size_leaf_vector":"1"}},{"base_weights":[-2.2940982E-4,-1.5556986E-2,-7.371751E-5,7.1112863E-6,-8.6985686E-4,9.127046E-7,-2.9334126E-4],"categories":[],"categories_nodes":[],"categories_segments":[],"categories_sizes":[],"default_left":[0,0,0,0,0,0,0],"id":107,"left_children":[1,3,5,-1,-1,-1,-1],"loss_changes":[1.3052569E-2,2.4526512E-2,9.447146E-3,0E0,0E0,0E0,0E0],"parents":[2147483647,0,0,1,1,2,2],"right_children":[2,4,6,-1,-1,-1,-1],"split_conditions":[-7.2983764E-2,7.245898E-2,2.0967126E-2,7.1112863E-6,-8.6985686E-4,9.127046E-7,-2.9334126E-4],"split_indices":[1,8,7,0,0,0,0],"split_type":[0,0,0,0,0,0,0],"sum_hessian":[5.467E3,5E1,5.417E3,3.5E1,1.5E1,5.378E3,3.9E1],"tree_param":{"num_deleted":"0","num_feature":"22","num_nodes":"7","size_leaf_vector":"1"}},{"base_weights":[2.6767765E-4,2.2853848E-2,1.6070223E-4,6.314559E-4,-2.2311445E-4,5.901402E-7,2.8926553E-4],"categories":[],"categories_nodes":[],"categories_segments":[],"categories_sizes":[],"default_left":[0,0,0,0,0,0,0],"id":108,"left_children":[1,3,5,-1,-1,-1,-1],"loss_changes":[1.3326116E-2,9.470809E-3,1.0321982E-2,0E0,0E0,0E0,0E0],"parents":[2147483647,0,0,1,1,2,2],"right_children":[2,4,6,-1,-1,-1,-1],"split_conditions":[-5.4534793E-2,-3.918825E-2,1.828003E-1,6.314559E-4,-2.2311445E-4,5.901402E-7,2.8926553E-4],"split_indices":[12,0,10,0,0,0,0],"split_type":[0,0,0,0,0,0,0],"sum_hessian":[5.518E3,2.1E1,5.497E3,1.7E1,4E0,5.452E3,4.5E1],"tree_param":{"num_deleted":"0","num_feature":"22","num_nodes":"7","size_leaf_vector":"1"}},{"base_weights":[-5.0553493E-4,-4.2434287E-4,-1.8884934E-2,-1.0702032E-5,2.7202416E-4,1.4542193E-5,-6.178906E-4],"categories":[],"categories_nodes":[],"categories_segments":[],"categories_sizes":[],"default_left":[0,0,0,0,0,0,0],"id":109,"left_children":[1,3,5,-1,-1,-1,-1],"loss_changes":[8.141997E-3,8.524454E-3,5.765103E-3,0E0,0E0,0E0,0E0],"parents":[2147483647,0,0,1,1,2,2],"right_children":[2,4,6,-1,-1,-1,-1],"split_conditions":[5.978737E-1,3.554687E-2,1.0452607E-3,-1.0702032E-5,2.7202416E-4,1.4542193E-5,-6.178906E-4],"split_indices":[11,5,4,0,0,0,0],"split_type":[0,0,0,0,0,0,0],"sum_hessian":[5.478E3,5.459E3,1.9E1,5.421E3,3.8E1,9E0,1E1],"tree_param":{"num_deleted":"0","num_feature":"22","num_nodes":"7","size_leaf_vector":"1"}},{"base_weights":[1.1729371E-4,-4.4936547E-5,1.8666921E-2,2.5864635E-4,-4.2456377E-6,6.35674E-4,-2.404637E-4],"categories":[],"categories_nodes":[],"categories_segments":[],"categories_sizes":[],"default_left":[0,0,0,0,0,0,0],"id":110,"left_children":[1,3,5,-1,-1,-1,-1],"loss_changes":[1.6660731E-2,1.194061E-2,2.1233365E-2,0E0,0E0,0E0,0E0],"parents":[2147483647,0,0,1,1,2,2],"right_children":[2,4,6,-1,-1,-1,-1],"split_conditions":[3.554687E-2,-6.4949684E-2,4.582087E-2,2.5864635E-4,-4.2456377E-6,6.35674E-4,-2.404637E-4],"split_indices":[5,3,1,0,0,0,0],"split_type":[0,0,0,0,0,0,0],"sum_hessian":[5.53E3,5.487E3,4.3E1,6.5E1,5.422E3,3E1,1.3E1],"tree_param":{"num_deleted":"0","num_feature":"22","num_nodes":"7","size_leaf_vector":"1"}},{"base_weights":[2.8742896E-4,-1.4430601E-2,4.1956524E-4,-1.4357179E-5,-8.4977597E-4,4.262196E-6,2.3354737E-4],"categories":[],"categories_nodes":[],"categories_segments":[],"categories_sizes":[],"default_left":[0,0,0,0,0,0,0],"id":111,"left_children":[1,3,5,-1,-1,-1,-1],"loss_changes":[1.0709091E-2,1.8700482E-2,1.2647664E-2,0E0,0E0,0E0,0E0],"parents":[2147483647,0,0,1,1,2,2],"right_children":[2,4,6,-1,-1,-1,-1],"split_conditions":[-7.2983764E-2,7.245898E-2,6.345375E-2,-1.4357179E-5,-8.4977597E-4,4.262196E-6,2.3354737E-4],"split_indices":[1,8,8,0,0,0,0],"split_type":[0,0,0,0,0,0,0],"sum_hessian":[5.486E3,4.4E1,5.442E3,3.3E1,1.1E1,5.349E3,9.3E1],"tree_param":{"num_deleted":"0","num_feature":"22","num_nodes":"7","size_leaf_vector":"1"}},{"base_weights":[-5.013798E-5,1.5408502E-2,-1.9395913E-4,1.0863963E-3,1.0549367E-4,-3.1871177E-4,-1.1545546E-6],"categories":[],"categories_nodes":[],"categories_segments":[],"categories_sizes":[],"default_left":[0,0,0,0,0,0,0],"id":112,"left_children":[1,3,5,-1,-1,-1,-1],"loss_changes":[1.2300786E-2,1.8677726E-2,1.1747282E-2,0E0,0E0,0E0,0E0],"parents":[2147483647,0,0,1,1,2,2],"right_children":[2,4,6,-1,-1,-1,-1],"split_conditions":[-7.2983764E-2,-6.4949684E-2,-7.2983764E-2,1.0863963E-3,1.0549367E-4,-3.1871177E-4,-1.1545546E-6],"split_indices":[3,4,1,0,0,0,0],"split_type":[0,0,0,0,0,0,0],"sum_hessian":[5.521E3,4.6E1,5.475E3,5E0,4.1E1,4.2E1,5.433E3],"tree_param":{"num_deleted":"0","num_feature":"22","num_nodes":"7","size_leaf_vector":"1"}},{"base_weights":[-2.6453615E-4,1.0721364E-2,-4.024024E-4,4.1021037E-4,-1.0193307E-4,-3.220957E-4,-5.4083785E-6],"categories":[],"categories_nodes":[],"categories_segments":[],"categories_sizes":[],"default_left":[0,0,0,0,0,0,0],"id":113,"left_children":[1,3,5,-1,-1,-1,-1],"loss_changes":[8.309379E-3,1.1052137E-2,1.1188133E-2,0E0,0E0,0E0,0E0],"parents":[2147483647,0,0,1,1,2,2],"right_children":[2,4,6,-1,-1,-1,-1],"split_conditions":[-6.4949684E-2,3.705752E-3,-7.2983764E-2,4.1021037E-4,-1.0193307E-4,-3.220957E-4,-5.4083785E-6],"split_indices":[3,12,1,0,0,0,0],"split_type":[0,0,0,0,0,0,0],"sum_hessian":[5.467E3,6.3E1,5.404E3,3.8E1,2.5E1,4E1,5.364E3],"tree_param":{"num_deleted":"0","num_feature":"22","num_nodes":"7","size_leaf_vector":"1"}},{"base_weights":[-2.972619E-4,1.7102625E-2,-3.9176267E-4,6.711805E-4,-2.108023E-4,-1.0741299E-5,1.8753287E-4],"categories":[],"categories_nodes":[],"categories_segments":[],"categories_sizes":[],"default_left":[0,0,0,0,0,0,0],"id":114,"left_children":[1,3,5,-1,-1,-1,-1],"loss_changes":[9.13143E-3,1.541558E-2,7.84308E-3,0E0,0E0,0E0,0E0],"parents":[2147483647,0,0,1,1,2,2],"right_children":[2,4,6,-1,-1,-1,-1],"split_conditions":[-1.8039845E-2,3E0,2.5413018E-2,6.711805E-4,-2.108023E-4,-1.0741299E-5,1.8753287E-4],"split_indices":[7,13,6,0,0,0,0],"split_type":[0,0,0,0,0,0,0],"sum_hessian":[5.528E3,2.5E1,5.503E3,1.5E1,1E1,5.427E3,7.6E1],"tree_param":{"num_deleted":"0","num_feature":"22","num_nodes":"7","size_leaf_vector":"1"}},{"base_weights":[-3.9387366E-4,5.2217772E-5,-4.344178E-3,4.7366213E-4,-1.0739121E-6,-2.7096792E-4,-3.7921298E-5],"categories":[],"categories_nodes":[],"categories_segments":[],"categories_sizes":[],"default_left":[0,0,0,0,0,0,0],"id":115,"left_children":[1,3,5,-1,-1,-1,-1],"loss_changes":[9.65621E-3,1.2340291E-2,1.2399886E-2,0E0,0E0,0E0,0E0],"parents":[2147483647,0,0,1,1,2,2],"right_children":[2,4,6,-1,-1,-1,-1],"split_conditions":[1.7043367E-2,-1.8039845E-2,-1.7931296E-2,4.7366213E-4,-1.0739121E-6,-2.7096792E-4,-3.7921298E-5],"split_indices":[12,7,10,0,0,0,0],"split_type":[0,0,0,0,0,0,0],"sum_hessian":[5.474E3,4.923E3,5.51E2,1.7E1,4.906E3,1.11E2,4.4E2],"tree_param":{"num_deleted":"0","num_feature":"22","num_nodes":"7","size_leaf_vector":"1"}},{"base_weights":[1.1998779E-4,2.3889009E-2,-1.0816931E-5,-1.9919295E-4,5.6170556E-4,3.9825417E-4,-2.1960261E-6],"categories":[],"categories_nodes":[],"categories_segments":[],"categories_sizes":[],"default_left":[0,0,0,0,0,0,0],"id":116,"left_children":[1,3,5,-1,-1,-1,-1],"loss_changes":[1.704227E-2,5.6597404E-3,1.0770807E-2,0E0,0E0,0E0,0E0],"parents":[2147483647,0,0,1,1,2,2],"right_children":[2,4,6,-1,-1,-1,-1],"split_conditions":[-5.4534793E-2,-9.2279166E-2,-1.8039845E-2,-1.9919295E-4,5.6170556E-4,3.9825417E-4,-2.1960261E-6],"split_indices":[12,3,7,0,0,0,0],"split_type":[0,0,0,0,0,0,0],"sum_hessian":[5.476E3,2.5E1,5.451E3,2E0,2.3E1,2.2E1,5.429E3],"tree_param":{"num_deleted":"0","num_feature":"22","num_nodes":"7","size_leaf_vector":"1"}},{"base_weights":[-1.896915E-5,-1.2745123E-4,2.2590676E-2,4.2558221E-7,-2.6821689E-4,6.8534276E-4,-2.6450466E-4],"categories":[],"categories_nodes":[],"categories_segments":[],"categories_sizes":[],"default_left":[0,0,0,0,0,0,0],"id":117,"left_children":[1,3,5,-1,-1,-1,-1],"loss_changes":[1.3354857E-2,1.0705464E-2,1.3139236E-2,0E0,0E0,0E0,0E0],"parents":[2147483647,0,0,1,1,2,2],"right_children":[2,4,6,-1,-1,-1,-1],"split_conditions":[1.0196776E-1,7.245898E-2,3.205291E-2,4.2558221E-7,-2.6821689E-4,6.8534276E-4,-2.6450466E-4],"split_indices":[2,8,12,0,0,0,0],"split_type":[0,0,0,0,0,0,0],"sum_hessian":[5.434E3,5.413E3,2.1E1,5.358E3,5.5E1,1.6E1,5E0],"tree_param":{"num_deleted":"0","num_feature":"22","num_nodes":"7","size_leaf_vector":"1"}},{"base_weights":[-9.720138E-5,2.1471586E-2,-1.8803644E-4,5.103135E-4,-1.19950455E-4,4.4334173E-4,-5.483219E-6],"categories":[],"categories_nodes":[],"categories_segments":[],"categories_sizes":[],"default_left":[0,0,0,0,0,0,0],"id":118,"left_children":[1,3,5,-1,-1,-1,-1],"loss_changes":[1.0744859E-2,3.320166E-3,1.0534957E-2,0E0,0E0,0E0,0E0],"parents":[2147483647,0,0,1,1,2,2],"right_children":[2,4,6,-1,-1,-1,-1],"split_conditions":[-9.2279166E-2,-1.4758756E-2,-1.8039845E-2,5.103135E-4,-1.19950455E-4,4.4334173E-4,-5.483219E-6],"split_indices":[0,12,7,0,0,0,0],"split_type":[0,0,0,0,0,0,0],"sum_hessian":[5.469E3,1.8E1,5.451E3,1.6E1,2E0,1.6E1,5.435E3],"tree_param":{"num_deleted":"0","num_feature":"22","num_nodes":"7","size_leaf_vector":"1"}},{"base_weights":[9.25582E-5,-5.5075896E-5,1.791092E-2,1.7732889E-6,-2.7854985E-4,5.9772335E-4,-1.3942643E-4],"categories":[],"categories_nodes":[],"categories_segments":[],"categories_sizes":[],"default_left":[0,0,0,0,0,0,0],"id":119,"left_children":[1,3,5,-1,-1,-1,-1],"loss_changes":[1.4725758E-2,1.1082988E-2,1.4748399E-2,0E0,0E0,0E0,0E0],"parents":[2147483647,0,0,1,1,2,2],"right_children":[2,4,6,-1,-1,-1,-1],"split_conditions":[3.554687E-2,3.765571E-2,4.8144802E-2,1.7732889E-6,-2.7854985E-4,5.9772335E-4,-1.3942643E-4],"split_indices":[5,12,1,0,0,0,0],"split_type":[0,0,0,0,0,0,0],"sum_hessian":[5.591E3,5.55E3,4.1E1,5.498E3,5.2E1,2.7E1,1.4E1],"tree_param":{"num_deleted":"0","num_feature":"22","num_nodes":"7","size_leaf_vector":"1"}},{"base_weights":[-6.110446E-5,-3.9980526E-4,4.817596E-3,-2.0181209E-4,-3.1790914E-6,3.1489113E-4,-4.7573336E-5],"categories":[],"categories_nodes":[],"categories_segments":[],"categories_sizes":[],"default_left":[0,0,0,0,0,0,0],"id":120,"left_children":[1,3,5,-1,-1,-1,-1],"loss_changes":[9.188823E-3,1.2126631E-2,2.8573873E-2,0E0,0E0,0E0,0E0],"parents":[2147483647,0,0,1,1,2,2],"right_children":[2,4,6,-1,-1,-1,-1],"split_conditions":[4.493731E-2,-1.2626752E-2,-1.1627846E-2,-2.0181209E-4,-3.1790914E-6,3.1489113E-4,-4.7573336E-5],"split_indices":[9,6,3,0,0,0,0],"split_type":[0,0,0,0,0,0,0],"sum_hessian":[5.55E3,5.194E3,3.56E2,1.21E2,5.073E3,1.39E2,2.17E2],"tree_param":{"num_deleted":"0","num_feature":"22","num_nodes":"7","size_leaf_vector":"1"}},{"base_weights":[-4.9770806E-5,-3.1194172E-4,7.209442E-3,1.0572317E-6,-1.231089E-4,4.5028035E-4,9.078457E-6],"categories":[],"categories_nodes":[],"categories_segments":[],"categories_sizes":[],"default_left":[0,0,0,0,0,0,0],"id":121,"left_children":[1,3,5,-1,-1,-1,-1],"loss_changes":[1.0537592E-2,1.1391457E-2,1.9903239E-2,0E0,0E0,0E0,0E0],"parents":[2147483647,0,0,1,1,2,2],"right_children":[2,4,6,-1,-1,-1,-1],"split_conditions":[5.2335158E-2,4.351158E-2,-4.542961E-3,1.0572317E-6,-1.231089E-4,4.5028035E-4,9.078457E-6],"split_indices":[9,8,12,0,0,0,0],"split_type":[0,0,0,0,0,0,0],"sum_hessian":[5.526E3,5.338E3,1.88E2,5.029E3,3.09E2,5.4E1,1.34E2],"tree_param":{"num_deleted":"0","num_feature":"22","num_nodes":"7","size_leaf_vector":"1"}},{"base_weights":[1.0612808E-5,5.472506E-4,-4.6878755E-3,-8.948183E-6,5.4576267E-5,8.762412E-5,-1.4916771E-4],"categories":[],"categories_nodes":[],"categories_segments":[],"categories_sizes":[],"default_left":[0,0,0,0,0,0,0],"id":122,"left_children":[1,3,5,-1,-1,-1,-1],"loss_changes":[1.4069557E-2,1.0873027E-2,1.453545E-2,0E0,0E0,0E0,0E0],"parents":[2147483647,0,0,1,1,2,2],"right_children":[2,4,6,-1,-1,-1,-1],"split_conditions":[3.965597E-2,1.8703999E-2,-3.171479E-2,-8.948183E-6,5.4576267E-5,8.762412E-5,-1.4916771E-4],"split_indices":[8,9,3,0,0,0,0],"split_type":[0,0,0,0,0,0,0],"sum_hessian":[5.57E3,5.003E3,5.67E2,3.439E3,1.564E3,1.32E2,4.35E2],"tree_param":{"num_deleted":"0","num_feature":"22","num_nodes":"7","size_leaf_vector":"1"}},{"base_weights":[-2.161936E-4,-7.985553E-5,-1.3832825E-2,-3.4215507E-6,3.6892484E-4,-8.463935E-4,-5.600454E-5],"categories":[],"categories_nodes":[],"categories_segments":[],"categories_sizes":[],"default_left":[0,0,0,0,0,0,0],"id":123,"left_children":[1,3,5,-1,-1,-1,-1],"loss_changes":[1.0299715E-2,9.312402E-3,1.6693097E-2,0E0,0E0,0E0,0E0],"parents":[2147483647,0,0,1,1,2,2],"right_children":[2,4,6,-1,-1,-1,-1],"split_conditions":[3.765571E-2,9.833126E-2,-7.2983764E-2,-3.4215507E-6,3.6892484E-4,-8.463935E-4,-5.600454E-5],"split_indices":[12,8,1,0,0,0,0],"split_type":[0,0,0,0,0,0,0],"sum_hessian":[5.546E3,5.496E3,5E1,5.474E3,2.2E1,1E1,4E1],"tree_param":{"num_deleted":"0","num_feature":"22","num_nodes":"7","size_leaf_vector":"1"}},{"base_weights":[-4.7075155E-5,-1.9280742E-4,1.52257085E-2,-1.2756724E-6,-2.3547657E-4,5.120221E-4,-1.5550412E-4],"categories":[],"categories_nodes":[],"categories_segments":[],"categories_sizes":[],"default_left":[0,0,0,0,0,0,0],"id":124,"left_children":[1,3,5,-1,-1,-1,-1],"loss_changes":[1.2245106E-2,8.136796E-3,1.340474E-2,0E0,0E0,0E0,0E0],"parents":[2147483647,0,0,1,1,2,2],"right_children":[2,4,6,-1,-1,-1,-1],"split_conditions":[3.554687E-2,3.765571E-2,4.8144802E-2,-1.2756724E-6,-2.3547657E-4,5.120221E-4,-1.5550412E-4],"split_indices":[5,12,1,0,0,0,0],"split_type":[0,0,0,0,0,0,0],"sum_hessian":[5.49E3,5.443E3,4.7E1,5.388E3,5.5E1,3.2E1,1.5E1],"tree_param":{"num_deleted":"0","num_feature":"22","num_nodes":"7","size_leaf_vector":"1"}},{"base_weights":[-2.3342356E-4,-6.122367E-5,-1.2323695E-2,-3.7279342E-6,3.5337402E-4,1.1684584E-4,-5.3224165E-4],"categories":[],"categories_nodes":[],"categories_segments":[],"categories_sizes":[],"default_left":[0,0,0,0,0,0,0],"id":125,"left_children":[1,3,5,-1,-1,-1,-1],"loss_changes":[1.1415689E-2,1.2029585E-2,2.0763705E-2,0E0,0E0,0E0,0E0],"parents":[2147483647,0,0,1,1,2,2],"right_children":[2,4,6,-1,-1,-1,-1],"split_conditions":[7.245898E-2,3.554687E-2,4.0358375E-3,-3.7279342E-6,3.5337402E-4,1.1684584E-4,-5.3224165E-4],"split_indices":[8,5,0,0,0,0,0],"split_type":[0,0,0,0,0,0,0],"sum_hessian":[5.48E3,5.408E3,7.2E1,5.375E3,3.3E1,3.3E1,3.9E1],"tree_param":{"num_deleted":"0","num_feature":"22","num_nodes":"7","size_leaf_vector":"1"}},{"base_weights":[1.1838696E-4,9.733865E-3,-8.9072535E-5,2.5450563E-4,-5.029736E-4,8.3052026E-7,-2.414891E-4],"categories":[],"categories_nodes":[],"categories_segments":[],"categories_sizes":[],"default_left":[0,0,0,0,0,0,0],"id":126,"left_children":[1,3,5,-1,-1,-1,-1],"loss_changes":[1.1145418E-2,1.39132105E-2,8.567685E-3,0E0,0E0,0E0,0E0],"parents":[2147483647,0,0,1,1,2,2],"right_children":[2,4,6,-1,-1,-1,-1],"split_conditions":[-5.3317446E-2,2.0086823E-3,7.245898E-2,2.5450563E-4,-5.029736E-4,8.3052026E-7,-2.414891E-4],"split_indices":[0,12,8,0,0,0,0],"split_type":[0,0,0,0,0,0,0],"sum_hessian":[5.58E3,1.13E2,5.467E3,1.07E2,6E0,5.413E3,5.4E1],"tree_param":{"num_deleted":"0","num_feature":"22","num_nodes":"7","size_leaf_vector":"1"}},{"base_weights":[2.0181442E-4,1.02112666E-4,2.0662382E-2,1.8315764E-4,-1.855653E-6,6.856893E-4,-8.462294E-5],"categories":[],"categories_nodes":[],"categories_segments":[],"categories_sizes":[],"default_left":[0,0,0,0,0,0,0],"id":127,"left_children":[1,3,5,-1,-1,-1,-1],"loss_changes":[1.1358115E-2,9.80136E-3,9.881059E-3,0E0,0E0,0E0,0E0],"parents":[2147483647,0,0,1,1,2,2],"right_children":[2,4,6,-1,-1,-1,-1],"split_conditions":[8.292539E-2,-5.3317446E-2,-7.422636E-3,1.8315764E-4,-1.855653E-6,6.856893E-4,-8.462294E-5],"split_indices":[9,0,3,0,0,0,0],"split_type":[0,0,0,0,0,0,0],"sum_hessian":[5.568E3,5.546E3,2.2E1,1.12E2,5.434E3,1.3E1,9E0],"tree_param":{"num_deleted":"0","num_feature":"22","num_nodes":"7","size_leaf_vector":"1"}},{"base_weights":[-2.9933345E-4,-1.8763943E-2,-1.3437851E-4,-8.8128356E-5,-9.967772E-4,-8.222056E-6,1.6187612E-4],"categories":[],"categories_nodes":[],"categories_segments":[],"categories_sizes":[],"default_left":[0,0,0,0,0,0,0],"id":128,"left_children":[1,3,5,-1,-1,-1,-1],"loss_changes":[1.6855193E-2,2.0763729E-2,1.2526137E-2,0E0,0E0,0E0,0E0],"parents":[2147483647,0,0,1,1,2,2],"right_children":[2,4,6,-1,-1,-1,-1],"split_conditions":[-7.2983764E-2,6.705032E-2,5.2335158E-2,-8.8128356E-5,-9.967772E-4,-8.222056E-6,1.6187612E-4],"split_indices":[1,8,9,0,0,0,0],"split_type":[0,0,0,0,0,0,0],"sum_hessian":[5.533E3,4.4E1,5.489E3,3.4E1,1E1,5.315E3,1.74E2],"tree_param":{"num_deleted":"0","num_feature":"22","num_nodes":"7","size_leaf_vector":"1"}},{"base_weights":[-2.7584293E-4,-8.276664E-5,-1.3795841E-2,5.506358E-4,-3.1910704E-6,2.0045562E-4,-4.973769E-4],"categories":[],"categories_nodes":[],"categories_segments":[],"categories_sizes":[],"default_left":[0,0,0,0,0,0,0],"id":129,"left_children":[1,3,5,-1,-1,-1,-1],"loss_changes":[1.4275741E-2,1.1470198E-2,2.1554539E-2,0E0,0E0,0E0,0E0],"parents":[2147483647,0,0,1,1,2,2],"right_children":[2,4,6,-1,-1,-1,-1],"split_conditions":[7.245898E-2,-1.8039845E-2,-6.2564216E-3,5.506358E-4,-3.1910704E-6,2.0045562E-4,-4.973769E-4],"split_indices":[8,7,12,0,0,0,0],"split_type":[0,0,0,0,0,0,0],"sum_hessian":[5.466E3,5.394E3,7.2E1,1E1,5.384E3,2.3E1,4.9E1],"tree_param":{"num_deleted":"0","num_feature":"22","num_nodes":"7","size_leaf_vector":"1"}},{"base_weights":[-2.891118E-5,1.05331065E-2,-2.4671858E-4,2.7432252E-4,-3.2838574E-4,-2.58233E-4,-1.6432326E-6],"categories":[],"categories_nodes":[],"categories_segments":[],"categories_sizes":[],"default_left":[0,0,0,0,0,0,0],"id":130,"left_children":[1,3,5,-1,-1,-1,-1],"loss_changes":[1.2638059E-2,1.0648736E-2,1.1211335E-2,0E0,0E0,0E0,0E0],"parents":[2147483647,0,0,1,1,2,2],"right_children":[2,4,6,-1,-1,-1,-1],"split_conditions":[-5.3317446E-2,-5.960377E-3,-4.3938976E-2,2.7432252E-4,-3.2838574E-4,-2.58233E-4,-1.6432326E-6],"split_indices":[0,12,0,0,0,0,0],"split_type":[0,0,0,0,0,0,0],"sum_hessian":[5.483E3,1.06E2,5.377E3,